<?xml version="1.0"?>
<opencv_storage>
<stage2>
  <maxWeakCount>5</maxWeakCount>
  <stageThreshold>-1.1325160264968872e+00</stageThreshold>
  <weakClassifiers>
    <_>
      <internalNodes>
        0 -1 10319 -2.4199160933494568e-01</internalNodes>
      <leafValues>
        8.4313726425170898e-01 -7.6506024599075317e-01</leafValues></_>
    <_>
      <internalNodes>
        0 -1 50226 -5.8780796825885773e-02</internalNodes>
      <leafValues>
        5.0342309474945068e-01 -5.3176313638687134e-01</leafValues></_>
    <_>
      <internalNodes>
        0 -1 151254 2.7068565032095648e-05</internalNodes>
      <leafValues>
        -5.6274324655532837e-01 4.4649302959442139e-01</leafValues></_>
    <_>
      <internalNodes>
        0 -1 161200 -9.2521705664694309e-04</internalNodes>
      <leafValues>
        -9.1878795623779297e-01 3.2687783241271973e-01</leafValues></_>
    <_>
      <internalNodes>
        0 -1 33817 -3.5975004720967263e-05</internalNodes>
      <leafValues>
        4.4575637578964233e-01 -6.0906356573104858e-01</leafValues></_></weakClassifiers></stage2>
</opencv_storage>
