<?xml version="1.0"?>
<opencv_storage>
<stage3>
  <maxWeakCount>6</maxWeakCount>
  <stageThreshold>-1.0468528270721436e+00</stageThreshold>
  <weakClassifiers>
    <_>
      <internalNodes>
        0 -1 106650 1.9310422241687775e-02</internalNodes>
      <leafValues>
        -7.6357829570770264e-01 4.0000000596046448e-01</leafValues></_>
    <_>
      <internalNodes>
        0 -1 11293 -1.4171949028968811e-01</internalNodes>
      <leafValues>
        4.1429877281188965e-01 -6.3124305009841919e-01</leafValues></_>
    <_>
      <internalNodes>
        0 -1 110886 -2.1025124005973339e-03</internalNodes>
      <leafValues>
        5.6047898530960083e-01 -4.6430736780166626e-01</leafValues></_>
    <_>
      <internalNodes>
        0 -1 143601 1.1259384453296661e-02</internalNodes>
      <leafValues>
        -4.0608036518096924e-01 6.1916363239288330e-01</leafValues></_>
    <_>
      <internalNodes>
        0 -1 274 -1.6698058694601059e-02</internalNodes>
      <leafValues>
        5.5296915769577026e-01 -4.7049981355667114e-01</leafValues></_>
    <_>
      <internalNodes>
        0 -1 34688 -2.2004596889019012e-02</internalNodes>
      <leafValues>
        7.3840838670730591e-01 -3.5985690355300903e-01</leafValues></_></weakClassifiers></stage3>
</opencv_storage>
