<?xml version="1.0"?>
<opencv_storage>
<cascade>
  <stageType>BOOST</stageType>
  <featureType>HAAR</featureType>
  <height>24</height>
  <width>24</width>
  <stageParams>
    <boostType>GAB</boostType>
    <minHitRate>9.9500000476837158e-01</minHitRate>
    <maxFalseAlarm>5.0000000000000000e-01</maxFalseAlarm>
    <weightTrimRate>9.4999998807907104e-01</weightTrimRate>
    <maxDepth>1</maxDepth>
    <maxWeakCount>100</maxWeakCount></stageParams>
  <featureParams>
    <maxCatCount>0</maxCatCount>
    <featSize>1</featSize>
    <mode>BASIC</mode></featureParams>
  <stageNum>20</stageNum>
  <stages>
    <!-- stage 0 -->
    <_>
      <maxWeakCount>7</maxWeakCount>
      <stageThreshold>-8.7578773498535156e-01</stageThreshold>
      <weakClassifiers>
        <_>
          <internalNodes>
            0 -1 301 3.4937969758175313e-05</internalNodes>
          <leafValues>
            -4.7747749090194702e-01 6.2745100259780884e-01</leafValues></_>
        <_>
          <internalNodes>
            0 -1 191 -1.7951615154743195e-04</internalNodes>
          <leafValues>
            7.9210782051086426e-01 -3.6312291026115417e-01</leafValues></_>
        <_>
          <internalNodes>
            0 -1 266 -2.2322774748317897e-04</internalNodes>
          <leafValues>
            8.1551152467727661e-01 -2.9432386159896851e-01</leafValues></_>
        <_>
          <internalNodes>
            0 -1 112 6.7043551243841648e-03</internalNodes>
          <leafValues>
            4.1492870450019836e-01 -7.5707513093948364e-01</leafValues></_>
        <_>
          <internalNodes>
            0 -1 227 -1.2319102883338928e-01</internalNodes>
          <leafValues>
            9.5425176620483398e-01 -2.5883463025093079e-01</leafValues></_>
        <_>
          <internalNodes>
            0 -1 258 -2.5437429940211587e-05</internalNodes>
          <leafValues>
            7.5443655252456665e-01 -2.9069212079048157e-01</leafValues></_>
        <_>
          <internalNodes>
            0 -1 232 -9.7716655582189560e-03</internalNodes>
          <leafValues>
            -8.2576757669448853e-01 3.9373457431793213e-01</leafValues></_></weakClassifiers></_>
    <!-- stage 1 -->
    <_>
      <maxWeakCount>8</maxWeakCount>
      <stageThreshold>-1.5420559644699097e+00</stageThreshold>
      <weakClassifiers>
        <_>
          <internalNodes>
            0 -1 152 -7.0866895839571953e-04</internalNodes>
          <leafValues>
            7.5609755516052246e-01 -3.8931298255920410e-01</leafValues></_>
        <_>
          <internalNodes>
            0 -1 248 -4.5672117266803980e-04</internalNodes>
          <leafValues>
            7.5093078613281250e-01 -3.5413962602615356e-01</leafValues></_>
        <_>
          <internalNodes>
            0 -1 346 -2.3175092064775527e-04</internalNodes>
          <leafValues>
            6.8933933973312378e-01 -3.7437334656715393e-01</leafValues></_>
        <_>
          <internalNodes>
            0 -1 332 -6.3095497898757458e-04</internalNodes>
          <leafValues>
            7.7227896451950073e-01 -3.8473778963088989e-01</leafValues></_>
        <_>
          <internalNodes>
            0 -1 186 -1.9887575763277709e-04</internalNodes>
          <leafValues>
            7.0425724983215332e-01 -3.6589112877845764e-01</leafValues></_>
        <_>
          <internalNodes>
            0 -1 377 -1.2004657946818043e-05</internalNodes>
          <leafValues>
            7.1287518739700317e-01 -3.1441706418991089e-01</leafValues></_>
        <_>
          <internalNodes>
            0 -1 57 -2.7381938695907593e-01</internalNodes>
          <leafValues>
            -1. 2.6409322023391724e-01</leafValues></_>
        <_>
          <internalNodes>
            0 -1 358 1.9938156008720398e-02</internalNodes>
          <leafValues>
            3.7672272324562073e-01 -7.1309876441955566e-01</leafValues></_></weakClassifiers></_>
    <!-- stage 2 -->
    <_>
      <maxWeakCount>13</maxWeakCount>
      <stageThreshold>-1.5179190635681152e+00</stageThreshold>
      <weakClassifiers>
        <_>
          <internalNodes>
            0 -1 251 -2.3924213019199669e-04</internalNodes>
          <leafValues>
            7.6315790414810181e-01 -3.4306567907333374e-01</leafValues></_>
        <_>
          <internalNodes>
            0 -1 252 1.6261448035947978e-04</internalNodes>
          <leafValues>
            -3.5001388192176819e-01 7.6162403821945190e-01</leafValues></_>
        <_>
          <internalNodes>
            0 -1 166 -3.7811486981809139e-03</internalNodes>
          <leafValues>
            5.8539295196533203e-01 -5.1895076036453247e-01</leafValues></_>
        <_>
          <internalNodes>
            0 -1 315 -1.5652462025173008e-04</internalNodes>
          <leafValues>
            9.7954273223876953e-01 -2.5202909111976624e-01</leafValues></_>
        <_>
          <internalNodes>
            0 -1 308 -1.3174308696761727e-04</internalNodes>
          <leafValues>
            6.9020742177963257e-01 -3.9218935370445251e-01</leafValues></_>
        <_>
          <internalNodes>
            0 -1 151 -8.6866647005081177e-02</internalNodes>
          <leafValues>
            -5.8081555366516113e-01 4.7447249293327332e-01</leafValues></_>
        <_>
          <internalNodes>
            0 -1 319 -2.1815486252307892e-04</internalNodes>
          <leafValues>
            8.9720338582992554e-01 -3.3526566624641418e-01</leafValues></_>
        <_>
          <internalNodes>
            0 -1 305 1.6887995298020542e-04</internalNodes>
          <leafValues>
            -3.5358330607414246e-01 7.4970763921737671e-01</leafValues></_>
        <_>
          <internalNodes>
            0 -1 143 -3.3378983061993495e-05</internalNodes>
          <leafValues>
            -6.5179455280303955e-01 3.7264180183410645e-01</leafValues></_>
        <_>
          <internalNodes>
            0 -1 176 1.1333697475492954e-03</internalNodes>
          <leafValues>
            -2.9480770230293274e-01 7.1682173013687134e-01</leafValues></_>
        <_>
          <internalNodes>
            0 -1 293 -2.0782178035005927e-04</internalNodes>
          <leafValues>
            -6.7296409606933594e-01 3.7858584523200989e-01</leafValues></_>
        <_>
          <internalNodes>
            0 -1 162 -6.4941138029098511e-02</internalNodes>
          <leafValues>
            7.7417528629302979e-01 -2.9362496733665466e-01</leafValues></_>
        <_>
          <internalNodes>
            0 -1 388 -1.4679206651635468e-04</internalNodes>
          <leafValues>
            -6.0833626985549927e-01 3.8991120457649231e-01</leafValues></_></weakClassifiers></_>
    <!-- stage 3 -->
    <_>
      <maxWeakCount>12</maxWeakCount>
      <stageThreshold>-1.7165904045104980e+00</stageThreshold>
      <weakClassifiers>
        <_>
          <internalNodes>
            0 -1 280 -6.3803442753851414e-04</internalNodes>
          <leafValues>
            7.0454543828964233e-01 -4.0799999237060547e-01</leafValues></_>
        <_>
          <internalNodes>
            0 -1 222 -2.8319505508989096e-04</internalNodes>
          <leafValues>
            7.7917516231536865e-01 -3.9287659525871277e-01</leafValues></_>
        <_>
          <internalNodes>
            0 -1 370 2.8028938686475158e-04</internalNodes>
          <leafValues>
            -5.0364840030670166e-01 6.6591566801071167e-01</leafValues></_>
        <_>
          <internalNodes>
            0 -1 269 1.7597016994841397e-04</internalNodes>
          <leafValues>
            -2.9144769906997681e-01 8.1051427125930786e-01</leafValues></_>
        <_>
          <internalNodes>
            0 -1 215 2.1430020569823682e-04</internalNodes>
          <leafValues>
            -3.5968849062919617e-01 7.4502140283584595e-01</leafValues></_>
        <_>
          <internalNodes>
            0 -1 240 1.0525798425078392e-02</internalNodes>
          <leafValues>
            3.6696410179138184e-01 -8.7106907367706299e-01</leafValues></_>
        <_>
          <internalNodes>
            0 -1 361 3.0469000921584666e-04</internalNodes>
          <leafValues>
            -4.0721017122268677e-01 8.6015564203262329e-01</leafValues></_>
        <_>
          <internalNodes>
            0 -1 82 3.1749294139444828e-03</internalNodes>
          <leafValues>
            3.5490790009498596e-01 -8.8516622781753540e-01</leafValues></_>
        <_>
          <internalNodes>
            0 -1 278 -7.5978727545589209e-04</internalNodes>
          <leafValues>
            7.7121359109878540e-01 -3.6296007037162781e-01</leafValues></_>
        <_>
          <internalNodes>
            0 -1 139 -6.1730393208563328e-03</internalNodes>
          <leafValues>
            -8.3553743362426758e-01 2.7546840906143188e-01</leafValues></_>
        <_>
          <internalNodes>
            0 -1 336 1.0852026753127575e-03</internalNodes>
          <leafValues>
            -2.5740271806716919e-01 7.2556018829345703e-01</leafValues></_>
        <_>
          <internalNodes>
            0 -1 47 -1.3086230319458991e-04</internalNodes>
          <leafValues>
            -8.2357847690582275e-01 2.6930329203605652e-01</leafValues></_></weakClassifiers></_>
    <!-- stage 4 -->
    <_>
      <maxWeakCount>10</maxWeakCount>
      <stageThreshold>-1.6227719783782959e+00</stageThreshold>
      <weakClassifiers>
        <_>
          <internalNodes>
            0 -1 359 -6.1224738601595163e-04</internalNodes>
          <leafValues>
            9.3750000000000000e-01 -3.2885906100273132e-01</leafValues></_>
        <_>
          <internalNodes>
            0 -1 303 1.8342633848078549e-04</internalNodes>
          <leafValues>
            -5.0299036502838135e-01 6.1070066690444946e-01</leafValues></_>
        <_>
          <internalNodes>
            0 -1 210 7.4059376493096352e-04</internalNodes>
          <leafValues>
            -4.1203889250755310e-01 7.7780938148498535e-01</leafValues></_>
        <_>
          <internalNodes>
            0 -1 272 -4.1420513298362494e-04</internalNodes>
          <leafValues>
            7.4467426538467407e-01 -3.4710815548896790e-01</leafValues></_>
        <_>
          <internalNodes>
            0 -1 357 -5.8539127930998802e-03</internalNodes>
          <leafValues>
            7.2559279203414917e-01 -3.7710469961166382e-01</leafValues></_>
        <_>
          <internalNodes>
            0 -1 235 -3.1335157109424472e-04</internalNodes>
          <leafValues>
            7.7686238288879395e-01 -2.7476507425308228e-01</leafValues></_>
        <_>
          <internalNodes>
            0 -1 161 2.4699931964278221e-04</internalNodes>
          <leafValues>
            3.2982599735260010e-01 -7.1572899818420410e-01</leafValues></_>
        <_>
          <internalNodes>
            0 -1 307 2.9415622702799737e-04</internalNodes>
          <leafValues>
            -3.5469552874565125e-01 6.3950777053833008e-01</leafValues></_>
        <_>
          <internalNodes>
            0 -1 108 -1.7824986949563026e-02</internalNodes>
          <leafValues>
            -8.6499011516571045e-01 3.1554594635963440e-01</leafValues></_>
        <_>
          <internalNodes>
            0 -1 91 1.3984680175781250e-01</internalNodes>
          <leafValues>
            3.2941782474517822e-01 -7.9635757207870483e-01</leafValues></_></weakClassifiers></_>
    <!-- stage 5 -->
    <_>
      <maxWeakCount>100</maxWeakCount>
      <stageThreshold>-2.0459058284759521e+00</stageThreshold>
      <weakClassifiers>
        <_>
          <internalNodes>
            0 -1 187 -6.7685806425288320e-04</internalNodes>
          <leafValues>
            8.3529412746429443e-01 -4.6875000000000000e-01</leafValues></_>
        <_>
          <internalNodes>
            0 -1 355 -2.0172300282865763e-03</internalNodes>
          <leafValues>
            8.9884996414184570e-01 -4.1879710555076599e-01</leafValues></_>
        <_>
          <internalNodes>
            0 -1 314 3.5345574724487960e-04</internalNodes>
          <leafValues>
            -5.1549142599105835e-01 8.9497977495193481e-01</leafValues></_>
        <_>
          <internalNodes>
            0 -1 249 3.8944228435866535e-04</internalNodes>
          <leafValues>
            -3.0293846130371094e-01 8.2872688770294189e-01</leafValues></_>
        <_>
          <internalNodes>
            0 -1 326 2.7766718631028198e-05</internalNodes>
          <leafValues>
            -3.0044493079185486e-01 8.4501677751541138e-01</leafValues></_>
        <_>
          <internalNodes>
            0 -1 130 4.4450582936406136e-03</internalNodes>
          <leafValues>
            3.5469341278076172e-01 -8.4577649831771851e-01</leafValues></_>
        <_>
          <internalNodes>
            0 -1 360 4.1041843360289931e-04</internalNodes>
          <leafValues>
            -3.5587266087532043e-01 8.8111984729766846e-01</leafValues></_>
        <_>
          <internalNodes>
            0 -1 342 -8.0788898048922420e-04</internalNodes>
          <leafValues>
            9.4211864471435547e-01 -2.2002917528152466e-01</leafValues></_>
        <_>
          <internalNodes>
            0 -1 276 8.3827428170479834e-05</internalNodes>
          <leafValues>
            3.3229017257690430e-01 -7.0611768960952759e-01</leafValues></_>
        <_>
          <internalNodes>
            0 -1 341 -1.8844076839741319e-04</internalNodes>
          <leafValues>
            8.4449183940887451e-01 -2.4368706345558167e-01</leafValues></_>
        <_>
          <internalNodes>
            0 -1 80 1.1440629896242172e-04</internalNodes>
          <leafValues>
            2.4245171248912811e-01 -8.5370612144470215e-01</leafValues></_>
        <_>
          <internalNodes>
            0 -1 213 3.3487525070086122e-04</internalNodes>
          <leafValues>
            -2.1251910924911499e-01 9.3125677108764648e-01</leafValues></_>
        <_>
          <internalNodes>
            0 -1 93 -2.1421235054731369e-02</internalNodes>
          <leafValues>
            9.6680170297622681e-01 -4.4497925788164139e-02</leafValues></_>
        <_>
          <internalNodes>
            0 -1 375 -9.3408552856999449e-06</internalNodes>
          <leafValues>
            -8.7433588504791260e-01 1.5362696349620819e-01</leafValues></_>
        <_>
          <internalNodes>
            0 -1 327 4.3330754851922393e-04</internalNodes>
          <leafValues>
            -1.0341519862413406e-01 9.1632974147796631e-01</leafValues></_>
        <_>
          <internalNodes>
            0 -1 333 -4.6310527977766469e-05</internalNodes>
          <leafValues>
            9.3188637495040894e-01 -4.3597359210252762e-02</leafValues></_>
        <_>
          <internalNodes>
            0 -1 64 -9.1759793576784432e-06</internalNodes>
          <leafValues>
            -8.6576032638549805e-01 8.9473016560077667e-02</leafValues></_>
        <_>
          <internalNodes>
            0 -1 219 2.7966542984358966e-04</internalNodes>
          <leafValues>
            -3.8183655589818954e-02 1.</leafValues></_>
        <_>
          <internalNodes>
            0 -1 133 -1.9424647092819214e-01</internalNodes>
          <leafValues>
            -1. 5.7082735002040863e-02</leafValues></_>
        <_>
          <internalNodes>
            0 -1 245 4.8297113971784711e-04</internalNodes>
          <leafValues>
            -4.6535082161426544e-02 9.4585573673248291e-01</leafValues></_>
        <_>
          <internalNodes>
            0 -1 229 8.8255535811185837e-03</internalNodes>
          <leafValues>
            4.3827854096889496e-02 -8.8747179508209229e-01</leafValues></_>
        <_>
          <internalNodes>
            0 -1 331 -5.2016484551131725e-04</internalNodes>
          <leafValues>
            9.3384778499603271e-01 -2.8775906190276146e-02</leafValues></_>
        <_>
          <internalNodes>
            0 -1 259 -1.4193657989380881e-05</internalNodes>
          <leafValues>
            -9.0514147281646729e-01 3.5409193485975266e-02</leafValues></_>
        <_>
          <internalNodes>
            0 -1 175 -2.0849565044045448e-03</internalNodes>
          <leafValues>
            9.3281817436218262e-01 -2.9039053246378899e-02</leafValues></_>
        <_>
          <internalNodes>
            0 -1 398 3.1664487323723733e-05</internalNodes>
          <leafValues>
            2.7120422571897507e-02 -1.</leafValues></_>
        <_>
          <internalNodes>
            0 -1 399 3.4985718230018392e-05</internalNodes>
          <leafValues>
            -1.2619698420166969e-02 1.</leafValues></_>
        <_>
          <internalNodes>
            0 -1 380 -2.2431105026043952e-04</internalNodes>
          <leafValues>
            -1. 8.6539005860686302e-03</leafValues></_>
        <_>
          <internalNodes>
            0 -1 356 -9.4124791212379932e-04</internalNodes>
          <leafValues>
            1. -8.6598899215459824e-03</leafValues></_>
        <_>
          <internalNodes>
            0 -1 286 9.3408554675988853e-05</internalNodes>
          <leafValues>
            7.3186769150197506e-03 -1.</leafValues></_>
        <_>
          <internalNodes>
            0 -1 189 3.2438882626593113e-03</internalNodes>
          <leafValues>
            -5.4102898575365543e-03 1.</leafValues></_>
        <_>
          <internalNodes>
            0 -1 74 -2.5299007538706064e-03</internalNodes>
          <leafValues>
            -1. 1.1791290016844869e-03</leafValues></_>
        <_>
          <internalNodes>
            0 -1 89 -1.4245264464989305e-03</internalNodes>
          <leafValues>
            1. -1.1791812721639872e-03</leafValues></_>
        <_>
          <internalNodes>
            0 -1 44 -1.7913139890879393e-04</internalNodes>
          <leafValues>
            -1. 1.4101642882451415e-03</leafValues></_>
        <_>
          <internalNodes>
            0 -1 43 -1.0110108269145712e-04</internalNodes>
          <leafValues>
            1. 9.3473428997015162e-10</leafValues></_>
        <_>
          <internalNodes>
            0 -1 43 -1.8855936650652438e-04</internalNodes>
          <leafValues>
            -1. 1.1071157901372725e-15</leafValues></_>
        <_>
          <internalNodes>
            0 -1 43 -1.0110108269145712e-04</internalNodes>
          <leafValues>
            1. -6.4325455489724881e-16</leafValues></_>
        <_>
          <internalNodes>
            0 -1 43 -1.8855936650652438e-04</internalNodes>
          <leafValues>
            -1. 7.6760026210360099e-16</leafValues></_>
        <_>
          <internalNodes>
            0 -1 43 -1.0110108269145712e-04</internalNodes>
          <leafValues>
            1. -7.0361862258112255e-16</leafValues></_>
        <_>
          <internalNodes>
            0 -1 43 -1.8855936650652438e-04</internalNodes>
          <leafValues>
            -1. 7.0855412474609574e-16</leafValues></_>
        <_>
          <internalNodes>
            0 -1 43 -1.0110108269145712e-04</internalNodes>
          <leafValues>
            1. -7.0361862258112255e-16</leafValues></_>
        <_>
          <internalNodes>
            0 -1 43 -1.8855936650652438e-04</internalNodes>
          <leafValues>
            -1. 7.0855412474609574e-16</leafValues></_>
        <_>
          <internalNodes>
            0 -1 43 -1.0110108269145712e-04</internalNodes>
          <leafValues>
            1. -7.0361862258112255e-16</leafValues></_>
        <_>
          <internalNodes>
            0 -1 43 -1.8855936650652438e-04</internalNodes>
          <leafValues>
            -1. 7.0855412474609574e-16</leafValues></_>
        <_>
          <internalNodes>
            0 -1 43 -1.0110108269145712e-04</internalNodes>
          <leafValues>
            1. -7.0361862258112255e-16</leafValues></_>
        <_>
          <internalNodes>
            0 -1 43 -1.8855936650652438e-04</internalNodes>
          <leafValues>
            -1. 7.0855412474609574e-16</leafValues></_>
        <_>
          <internalNodes>
            0 -1 43 -1.0110108269145712e-04</internalNodes>
          <leafValues>
            1. -7.0361862258112255e-16</leafValues></_>
        <_>
          <internalNodes>
            0 -1 43 -1.8855936650652438e-04</internalNodes>
          <leafValues>
            -1. 7.0855412474609574e-16</leafValues></_>
        <_>
          <internalNodes>
            0 -1 43 -1.0110108269145712e-04</internalNodes>
          <leafValues>
            1. -7.0361862258112255e-16</leafValues></_>
        <_>
          <internalNodes>
            0 -1 43 -1.8855936650652438e-04</internalNodes>
          <leafValues>
            -1. 7.0855412474609574e-16</leafValues></_>
        <_>
          <internalNodes>
            0 -1 43 -1.0110108269145712e-04</internalNodes>
          <leafValues>
            1. -7.0361862258112255e-16</leafValues></_>
        <_>
          <internalNodes>
            0 -1 43 -1.8855936650652438e-04</internalNodes>
          <leafValues>
            -1. 7.0855412474609574e-16</leafValues></_>
        <_>
          <internalNodes>
            0 -1 43 -1.0110108269145712e-04</internalNodes>
          <leafValues>
            1. -7.0361862258112255e-16</leafValues></_>
        <_>
          <internalNodes>
            0 -1 43 -1.8855936650652438e-04</internalNodes>
          <leafValues>
            -1. 7.0855412474609574e-16</leafValues></_>
        <_>
          <internalNodes>
            0 -1 43 -1.0110108269145712e-04</internalNodes>
          <leafValues>
            1. -7.0361862258112255e-16</leafValues></_>
        <_>
          <internalNodes>
            0 -1 43 -1.8855936650652438e-04</internalNodes>
          <leafValues>
            -1. 7.0855412474609574e-16</leafValues></_>
        <_>
          <internalNodes>
            0 -1 43 -1.0110108269145712e-04</internalNodes>
          <leafValues>
            1. -7.0361862258112255e-16</leafValues></_>
        <_>
          <internalNodes>
            0 -1 43 -1.8855936650652438e-04</internalNodes>
          <leafValues>
            -1. 7.0855412474609574e-16</leafValues></_>
        <_>
          <internalNodes>
            0 -1 43 -1.0110108269145712e-04</internalNodes>
          <leafValues>
            1. -7.0361862258112255e-16</leafValues></_>
        <_>
          <internalNodes>
            0 -1 43 -1.8855936650652438e-04</internalNodes>
          <leafValues>
            -1. 7.1224448847860512e-16</leafValues></_>
        <_>
          <internalNodes>
            0 -1 43 -1.0110108269145712e-04</internalNodes>
          <leafValues>
            1. -8.1114209663632670e-16</leafValues></_>
        <_>
          <internalNodes>
            0 -1 43 -1.8855936650652438e-04</internalNodes>
          <leafValues>
            -1. 8.1188489159150952e-16</leafValues></_>
        <_>
          <internalNodes>
            0 -1 43 -1.0110108269145712e-04</internalNodes>
          <leafValues>
            1. -8.1114209663632670e-16</leafValues></_>
        <_>
          <internalNodes>
            0 -1 43 -1.8855936650652438e-04</internalNodes>
          <leafValues>
            -1. 8.1188489159150952e-16</leafValues></_>
        <_>
          <internalNodes>
            0 -1 43 -1.0110108269145712e-04</internalNodes>
          <leafValues>
            1. -8.1114209663632670e-16</leafValues></_>
        <_>
          <internalNodes>
            0 -1 43 -1.8855936650652438e-04</internalNodes>
          <leafValues>
            -1. 8.1188489159150952e-16</leafValues></_>
        <_>
          <internalNodes>
            0 -1 43 -1.0110108269145712e-04</internalNodes>
          <leafValues>
            1. -8.1114209663632670e-16</leafValues></_>
        <_>
          <internalNodes>
            0 -1 43 -1.8855936650652438e-04</internalNodes>
          <leafValues>
            -1. 8.1188489159150952e-16</leafValues></_>
        <_>
          <internalNodes>
            0 -1 43 -1.0110108269145712e-04</internalNodes>
          <leafValues>
            1. -8.1114209663632670e-16</leafValues></_>
        <_>
          <internalNodes>
            0 -1 43 -1.8855936650652438e-04</internalNodes>
          <leafValues>
            -1. 8.1188489159150952e-16</leafValues></_>
        <_>
          <internalNodes>
            0 -1 43 -1.0110108269145712e-04</internalNodes>
          <leafValues>
            1. -8.1114209663632670e-16</leafValues></_>
        <_>
          <internalNodes>
            0 -1 43 -1.8855936650652438e-04</internalNodes>
          <leafValues>
            -1. 8.1188489159150952e-16</leafValues></_>
        <_>
          <internalNodes>
            0 -1 43 -1.0110108269145712e-04</internalNodes>
          <leafValues>
            1. -8.1114209663632670e-16</leafValues></_>
        <_>
          <internalNodes>
            0 -1 43 -1.8855936650652438e-04</internalNodes>
          <leafValues>
            -1. 8.1188489159150952e-16</leafValues></_>
        <_>
          <internalNodes>
            0 -1 43 -1.0110108269145712e-04</internalNodes>
          <leafValues>
            1. -8.1114209663632670e-16</leafValues></_>
        <_>
          <internalNodes>
            0 -1 43 -1.8855936650652438e-04</internalNodes>
          <leafValues>
            -1. 8.1188489159150952e-16</leafValues></_>
        <_>
          <internalNodes>
            0 -1 43 -1.0110108269145712e-04</internalNodes>
          <leafValues>
            1. -8.1114209663632670e-16</leafValues></_>
        <_>
          <internalNodes>
            0 -1 43 -1.8855936650652438e-04</internalNodes>
          <leafValues>
            -1. 8.1188489159150952e-16</leafValues></_>
        <_>
          <internalNodes>
            0 -1 43 -1.0110108269145712e-04</internalNodes>
          <leafValues>
            1. -8.1114209663632670e-16</leafValues></_>
        <_>
          <internalNodes>
            0 -1 43 -1.8855936650652438e-04</internalNodes>
          <leafValues>
            -1. 8.1188489159150952e-16</leafValues></_>
        <_>
          <internalNodes>
            0 -1 43 -1.0110108269145712e-04</internalNodes>
          <leafValues>
            1. -8.1114209663632670e-16</leafValues></_>
        <_>
          <internalNodes>
            0 -1 43 -1.8855936650652438e-04</internalNodes>
          <leafValues>
            -1. 7.0486370807402716e-16</leafValues></_>
        <_>
          <internalNodes>
            0 -1 43 -1.0110108269145712e-04</internalNodes>
          <leafValues>
            1. -7.0173222726802801e-16</leafValues></_>
        <_>
          <internalNodes>
            0 -1 43 -1.8855936650652438e-04</internalNodes>
          <leafValues>
            -1. 1.1809234883039337e-15</leafValues></_>
        <_>
          <internalNodes>
            0 -1 43 -1.0110108269145712e-04</internalNodes>
          <leafValues>
            1. -9.9223429968794789e-16</leafValues></_>
        <_>
          <internalNodes>
            0 -1 43 -1.8855936650652438e-04</internalNodes>
          <leafValues>
            -1. 6.4581751777696272e-16</leafValues></_>
        <_>
          <internalNodes>
            0 -1 43 -1.0110108269145712e-04</internalNodes>
          <leafValues>
            1. -7.6775542795162613e-16</leafValues></_>
        <_>
          <internalNodes>
            0 -1 43 -1.8855936650652438e-04</internalNodes>
          <leafValues>
            -1. 1.1218773509464285e-15</leafValues></_>
        <_>
          <internalNodes>
            0 -1 43 -1.0110108269145712e-04</internalNodes>
          <leafValues>
            1. -9.9223429968794789e-16</leafValues></_>
        <_>
          <internalNodes>
            0 -1 43 -1.8855936650652438e-04</internalNodes>
          <leafValues>
            -1. 6.4581751777696272e-16</leafValues></_>
        <_>
          <internalNodes>
            0 -1 43 -1.0110108269145712e-04</internalNodes>
          <leafValues>
            1. -7.6775542795162613e-16</leafValues></_>
        <_>
          <internalNodes>
            0 -1 43 -1.8855936650652438e-04</internalNodes>
          <leafValues>
            -1. 1.1218773509464285e-15</leafValues></_>
        <_>
          <internalNodes>
            0 -1 43 -1.0110108269145712e-04</internalNodes>
          <leafValues>
            1. -9.9223429968794789e-16</leafValues></_>
        <_>
          <internalNodes>
            0 -1 43 -1.8855936650652438e-04</internalNodes>
          <leafValues>
            -1. 6.4581751777696272e-16</leafValues></_>
        <_>
          <internalNodes>
            0 -1 43 -1.0110108269145712e-04</internalNodes>
          <leafValues>
            1. -7.6775542795162613e-16</leafValues></_>
        <_>
          <internalNodes>
            0 -1 43 -1.8855936650652438e-04</internalNodes>
          <leafValues>
            -1. 1.1218773509464285e-15</leafValues></_>
        <_>
          <internalNodes>
            0 -1 43 -1.0110108269145712e-04</internalNodes>
          <leafValues>
            1. -9.9223429968794789e-16</leafValues></_>
        <_>
          <internalNodes>
            0 -1 43 -1.8855936650652438e-04</internalNodes>
          <leafValues>
            -1. 6.4581751777696272e-16</leafValues></_>
        <_>
          <internalNodes>
            0 -1 43 -1.0110108269145712e-04</internalNodes>
          <leafValues>
            1. -7.6209629495190175e-16</leafValues></_>
        <_>
          <internalNodes>
            0 -1 43 -1.8855936650652438e-04</internalNodes>
          <leafValues>
            -1. 1.1218773509464285e-15</leafValues></_>
        <_>
          <internalNodes>
            0 -1 43 -1.0110108269145712e-04</internalNodes>
          <leafValues>
            1. -9.9223429968794789e-16</leafValues></_></weakClassifiers></_>
    <!-- stage 6 -->
    <_>
      <maxWeakCount>100</maxWeakCount>
      <stageThreshold>-2.1601216793060303e+00</stageThreshold>
      <weakClassifiers>
        <_>
          <internalNodes>
            0 -1 114 -3.8990972825558856e-05</internalNodes>
          <leafValues>
            8.1443297863006592e-01 -5.8620691299438477e-01</leafValues></_>
        <_>
          <internalNodes>
            0 -1 129 2.4591090550529771e-05</internalNodes>
          <leafValues>
            -4.2602744698524475e-01 9.0276271104812622e-01</leafValues></_>
        <_>
          <internalNodes>
            0 -1 230 3.5227998159825802e-04</internalNodes>
          <leafValues>
            -3.9943331480026245e-01 9.0295451879501343e-01</leafValues></_>
        <_>
          <internalNodes>
            0 -1 338 -4.2464664147701114e-05</internalNodes>
          <leafValues>
            8.5459607839584351e-01 -4.3910858035087585e-01</leafValues></_>
        <_>
          <internalNodes>
            0 -1 121 -4.0936173172667623e-04</internalNodes>
          <leafValues>
            8.4578156471252441e-01 -3.3983388543128967e-01</leafValues></_>
        <_>
          <internalNodes>
            0 -1 367 -2.2308174811769277e-04</internalNodes>
          <leafValues>
            9.3325382471084595e-01 -1.8946252763271332e-01</leafValues></_>
        <_>
          <internalNodes>
            0 -1 69 -1.6757667763158679e-03</internalNodes>
          <leafValues>
            -8.0199986696243286e-01 3.5867112874984741e-01</leafValues></_>
        <_>
          <internalNodes>
            0 -1 134 -2.9252492822706699e-03</internalNodes>
          <leafValues>
            8.5184711217880249e-01 -2.9528349637985229e-01</leafValues></_>
        <_>
          <internalNodes>
            0 -1 397 -2.1939456928521395e-04</internalNodes>
          <leafValues>
            -9.7406369447708130e-01 2.5961548089981079e-01</leafValues></_>
        <_>
          <internalNodes>
            0 -1 335 -4.3535213917493820e-03</internalNodes>
          <leafValues>
            1. -1.9854405522346497e-01</leafValues></_>
        <_>
          <internalNodes>
            0 -1 400 -3.4716515801846981e-04</internalNodes>
          <leafValues>
            -1. 1.6679598391056061e-01</leafValues></_>
        <_>
          <internalNodes>
            0 -1 285 2.9663243331015110e-03</internalNodes>
          <leafValues>
            -1.4335791766643524e-01 1.</leafValues></_>
        <_>
          <internalNodes>
            0 -1 247 -2.0963812858099118e-05</internalNodes>
          <leafValues>
            -7.3158574104309082e-01 1.3512653112411499e-01</leafValues></_>
        <_>
          <internalNodes>
            0 -1 351 2.8512764401966706e-05</internalNodes>
          <leafValues>
            -1.0576374828815460e-01 9.1446292400360107e-01</leafValues></_>
        <_>
          <internalNodes>
            0 -1 21 -9.3543184921145439e-03</internalNodes>
          <leafValues>
            -1. 8.0591537058353424e-02</leafValues></_>
        <_>
          <internalNodes>
            0 -1 224 -3.3049605553969741e-04</internalNodes>
          <leafValues>
            1. -7.3908783495426178e-02</leafValues></_>
        <_>
          <internalNodes>
            0 -1 371 3.6003510467708111e-04</internalNodes>
          <leafValues>
            4.9537979066371918e-02 -1.</leafValues></_>
        <_>
          <internalNodes>
            0 -1 201 4.6116409066598862e-05</internalNodes>
          <leafValues>
            -2.8720295056700706e-02 9.4040167331695557e-01</leafValues></_>
        <_>
          <internalNodes>
            0 -1 125 -8.8357061031274498e-05</internalNodes>
          <leafValues>
            -8.4303975105285645e-01 3.6752637475728989e-02</leafValues></_>
        <_>
          <internalNodes>
            0 -1 295 -1.0102229134645313e-04</internalNodes>
          <leafValues>
            9.5349580049514771e-01 -2.9178092256188393e-02</leafValues></_>
        <_>
          <internalNodes>
            0 -1 264 -1.1571872979402542e-02</internalNodes>
          <leafValues>
            -9.0144592523574829e-01 2.2295434027910233e-02</leafValues></_>
        <_>
          <internalNodes>
            0 -1 195 -2.3856130428612232e-04</internalNodes>
          <leafValues>
            1. -1.5003967098891735e-02</leafValues></_>
        <_>
          <internalNodes>
            0 -1 65 -1.1745565570890903e-03</internalNodes>
          <leafValues>
            -1. 3.9636287838220596e-03</leafValues></_>
        <_>
          <internalNodes>
            0 -1 81 -1.4545513840857893e-04</internalNodes>
          <leafValues>
            1. -3.6390135064721107e-03</leafValues></_>
        <_>
          <internalNodes>
            0 -1 19 -4.1927625716198236e-05</internalNodes>
          <leafValues>
            -1. 1.3776093255728483e-03</leafValues></_>
        <_>
          <internalNodes>
            0 -1 17 -3.6080728023080155e-05</internalNodes>
          <leafValues>
            1. -1.3776245759800076e-03</leafValues></_>
        <_>
          <internalNodes>
            0 -1 13 -2.2796506527811289e-05</internalNodes>
          <leafValues>
            -1. 1.3776245759800076e-03</leafValues></_>
        <_>
          <internalNodes>
            0 -1 13 -1.8040364011540078e-05</internalNodes>
          <leafValues>
            1. -1.3776245759800076e-03</leafValues></_>
        <_>
          <internalNodes>
            0 -1 13 -2.2796506527811289e-05</internalNodes>
          <leafValues>
            -1. 1.3776245759800076e-03</leafValues></_>
        <_>
          <internalNodes>
            0 -1 13 -1.8040364011540078e-05</internalNodes>
          <leafValues>
            1. -1.3776245759800076e-03</leafValues></_>
        <_>
          <internalNodes>
            0 -1 13 -2.2796506527811289e-05</internalNodes>
          <leafValues>
            -1. 1.3776245759800076e-03</leafValues></_>
        <_>
          <internalNodes>
            0 -1 13 -1.8040364011540078e-05</internalNodes>
          <leafValues>
            1. -1.3776245759800076e-03</leafValues></_>
        <_>
          <internalNodes>
            0 -1 13 -2.2796506527811289e-05</internalNodes>
          <leafValues>
            -1. 1.3776245759800076e-03</leafValues></_>
        <_>
          <internalNodes>
            0 -1 13 -1.8040364011540078e-05</internalNodes>
          <leafValues>
            1. -1.3776245759800076e-03</leafValues></_>
        <_>
          <internalNodes>
            0 -1 13 -2.2796506527811289e-05</internalNodes>
          <leafValues>
            -1. 1.3776245759800076e-03</leafValues></_>
        <_>
          <internalNodes>
            0 -1 13 -1.8040364011540078e-05</internalNodes>
          <leafValues>
            1. -1.3776245759800076e-03</leafValues></_>
        <_>
          <internalNodes>
            0 -1 13 -2.2796506527811289e-05</internalNodes>
          <leafValues>
            -1. 1.3776245759800076e-03</leafValues></_>
        <_>
          <internalNodes>
            0 -1 13 -1.8040364011540078e-05</internalNodes>
          <leafValues>
            1. -1.3776245759800076e-03</leafValues></_>
        <_>
          <internalNodes>
            0 -1 13 -2.2796506527811289e-05</internalNodes>
          <leafValues>
            -1. 1.3776245759800076e-03</leafValues></_>
        <_>
          <internalNodes>
            0 -1 13 -1.8040364011540078e-05</internalNodes>
          <leafValues>
            1. -1.3776245759800076e-03</leafValues></_>
        <_>
          <internalNodes>
            0 -1 13 -2.2796506527811289e-05</internalNodes>
          <leafValues>
            -1. 1.3776245759800076e-03</leafValues></_>
        <_>
          <internalNodes>
            0 -1 13 -1.8040364011540078e-05</internalNodes>
          <leafValues>
            1. -1.3776245759800076e-03</leafValues></_>
        <_>
          <internalNodes>
            0 -1 13 -2.2796506527811289e-05</internalNodes>
          <leafValues>
            -1. 1.3776245759800076e-03</leafValues></_>
        <_>
          <internalNodes>
            0 -1 13 -1.8040364011540078e-05</internalNodes>
          <leafValues>
            1. -1.3776245759800076e-03</leafValues></_>
        <_>
          <internalNodes>
            0 -1 13 -2.2796506527811289e-05</internalNodes>
          <leafValues>
            -1. 1.3776245759800076e-03</leafValues></_>
        <_>
          <internalNodes>
            0 -1 13 -1.8040364011540078e-05</internalNodes>
          <leafValues>
            1. -1.3776245759800076e-03</leafValues></_>
        <_>
          <internalNodes>
            0 -1 13 -2.2796506527811289e-05</internalNodes>
          <leafValues>
            -1. 1.3776245759800076e-03</leafValues></_>
        <_>
          <internalNodes>
            0 -1 13 -1.8040364011540078e-05</internalNodes>
          <leafValues>
            1. -1.3776245759800076e-03</leafValues></_>
        <_>
          <internalNodes>
            0 -1 13 -2.2796506527811289e-05</internalNodes>
          <leafValues>
            -1. 1.3776245759800076e-03</leafValues></_>
        <_>
          <internalNodes>
            0 -1 13 -1.8040364011540078e-05</internalNodes>
          <leafValues>
            1. -1.3776245759800076e-03</leafValues></_>
        <_>
          <internalNodes>
            0 -1 13 -2.2796506527811289e-05</internalNodes>
          <leafValues>
            -1. 1.3776245759800076e-03</leafValues></_>
        <_>
          <internalNodes>
            0 -1 13 -1.8040364011540078e-05</internalNodes>
          <leafValues>
            1. -1.3776245759800076e-03</leafValues></_>
        <_>
          <internalNodes>
            0 -1 13 -2.2796506527811289e-05</internalNodes>
          <leafValues>
            -1. 1.3776245759800076e-03</leafValues></_>
        <_>
          <internalNodes>
            0 -1 13 -1.8040364011540078e-05</internalNodes>
          <leafValues>
            1. -1.3776245759800076e-03</leafValues></_>
        <_>
          <internalNodes>
            0 -1 13 -2.2796506527811289e-05</internalNodes>
          <leafValues>
            -1. 1.3776245759800076e-03</leafValues></_>
        <_>
          <internalNodes>
            0 -1 13 -1.8040364011540078e-05</internalNodes>
          <leafValues>
            1. -1.3776245759800076e-03</leafValues></_>
        <_>
          <internalNodes>
            0 -1 13 -2.2796506527811289e-05</internalNodes>
          <leafValues>
            -1. 1.3776245759800076e-03</leafValues></_>
        <_>
          <internalNodes>
            0 -1 13 -1.8040364011540078e-05</internalNodes>
          <leafValues>
            1. -1.3776245759800076e-03</leafValues></_>
        <_>
          <internalNodes>
            0 -1 13 -2.2796506527811289e-05</internalNodes>
          <leafValues>
            -1. 1.3776245759800076e-03</leafValues></_>
        <_>
          <internalNodes>
            0 -1 13 -1.8040364011540078e-05</internalNodes>
          <leafValues>
            1. -1.3776245759800076e-03</leafValues></_>
        <_>
          <internalNodes>
            0 -1 13 -2.2796506527811289e-05</internalNodes>
          <leafValues>
            -1. 1.3776245759800076e-03</leafValues></_>
        <_>
          <internalNodes>
            0 -1 13 -1.8040364011540078e-05</internalNodes>
          <leafValues>
            1. -1.3776245759800076e-03</leafValues></_>
        <_>
          <internalNodes>
            0 -1 13 -2.2796506527811289e-05</internalNodes>
          <leafValues>
            -1. 1.3776245759800076e-03</leafValues></_>
        <_>
          <internalNodes>
            0 -1 13 -1.8040364011540078e-05</internalNodes>
          <leafValues>
            1. -1.3776245759800076e-03</leafValues></_>
        <_>
          <internalNodes>
            0 -1 13 -2.2796506527811289e-05</internalNodes>
          <leafValues>
            -1. 1.3776245759800076e-03</leafValues></_>
        <_>
          <internalNodes>
            0 -1 13 -1.8040364011540078e-05</internalNodes>
          <leafValues>
            1. -1.3776245759800076e-03</leafValues></_>
        <_>
          <internalNodes>
            0 -1 13 -2.2796506527811289e-05</internalNodes>
          <leafValues>
            -1. 1.3776245759800076e-03</leafValues></_>
        <_>
          <internalNodes>
            0 -1 13 -1.8040364011540078e-05</internalNodes>
          <leafValues>
            1. -1.3776245759800076e-03</leafValues></_>
        <_>
          <internalNodes>
            0 -1 13 -2.2796506527811289e-05</internalNodes>
          <leafValues>
            -1. 1.3776245759800076e-03</leafValues></_>
        <_>
          <internalNodes>
            0 -1 13 -1.8040364011540078e-05</internalNodes>
          <leafValues>
            1. -1.3776245759800076e-03</leafValues></_>
        <_>
          <internalNodes>
            0 -1 13 -2.2796506527811289e-05</internalNodes>
          <leafValues>
            -1. 1.3776245759800076e-03</leafValues></_>
        <_>
          <internalNodes>
            0 -1 13 -1.8040364011540078e-05</internalNodes>
          <leafValues>
            1. -1.3776245759800076e-03</leafValues></_>
        <_>
          <internalNodes>
            0 -1 13 -2.2796506527811289e-05</internalNodes>
          <leafValues>
            -1. 1.3776245759800076e-03</leafValues></_>
        <_>
          <internalNodes>
            0 -1 13 -1.8040364011540078e-05</internalNodes>
          <leafValues>
            1. -1.3776245759800076e-03</leafValues></_>
        <_>
          <internalNodes>
            0 -1 13 -2.2796506527811289e-05</internalNodes>
          <leafValues>
            -1. 1.3776245759800076e-03</leafValues></_>
        <_>
          <internalNodes>
            0 -1 13 -1.8040364011540078e-05</internalNodes>
          <leafValues>
            1. -1.3776245759800076e-03</leafValues></_>
        <_>
          <internalNodes>
            0 -1 13 -2.2796506527811289e-05</internalNodes>
          <leafValues>
            -1. 1.3776245759800076e-03</leafValues></_>
        <_>
          <internalNodes>
            0 -1 13 -1.8040364011540078e-05</internalNodes>
          <leafValues>
            1. -1.3776245759800076e-03</leafValues></_>
        <_>
          <internalNodes>
            0 -1 13 -2.2796506527811289e-05</internalNodes>
          <leafValues>
            -1. 1.3776245759800076e-03</leafValues></_>
        <_>
          <internalNodes>
            0 -1 13 -1.8040364011540078e-05</internalNodes>
          <leafValues>
            1. -1.3776245759800076e-03</leafValues></_>
        <_>
          <internalNodes>
            0 -1 13 -2.2796506527811289e-05</internalNodes>
          <leafValues>
            -1. 1.3776245759800076e-03</leafValues></_>
        <_>
          <internalNodes>
            0 -1 13 -1.8040364011540078e-05</internalNodes>
          <leafValues>
            1. -1.3776245759800076e-03</leafValues></_>
        <_>
          <internalNodes>
            0 -1 13 -2.2796506527811289e-05</internalNodes>
          <leafValues>
            -1. 1.3776245759800076e-03</leafValues></_>
        <_>
          <internalNodes>
            0 -1 13 -1.8040364011540078e-05</internalNodes>
          <leafValues>
            1. -1.3776245759800076e-03</leafValues></_>
        <_>
          <internalNodes>
            0 -1 13 -2.2796506527811289e-05</internalNodes>
          <leafValues>
            -1. 1.3776245759800076e-03</leafValues></_>
        <_>
          <internalNodes>
            0 -1 13 -1.8040364011540078e-05</internalNodes>
          <leafValues>
            1. -1.3776245759800076e-03</leafValues></_>
        <_>
          <internalNodes>
            0 -1 13 -2.2796506527811289e-05</internalNodes>
          <leafValues>
            -1. 1.3776245759800076e-03</leafValues></_>
        <_>
          <internalNodes>
            0 -1 13 -1.8040364011540078e-05</internalNodes>
          <leafValues>
            1. -1.3776245759800076e-03</leafValues></_>
        <_>
          <internalNodes>
            0 -1 13 -2.2796506527811289e-05</internalNodes>
          <leafValues>
            -1. 1.3776245759800076e-03</leafValues></_>
        <_>
          <internalNodes>
            0 -1 13 -1.8040364011540078e-05</internalNodes>
          <leafValues>
            1. -1.3776245759800076e-03</leafValues></_>
        <_>
          <internalNodes>
            0 -1 13 -2.2796506527811289e-05</internalNodes>
          <leafValues>
            -1. 1.3776245759800076e-03</leafValues></_>
        <_>
          <internalNodes>
            0 -1 13 -1.8040364011540078e-05</internalNodes>
          <leafValues>
            1. -1.3776245759800076e-03</leafValues></_>
        <_>
          <internalNodes>
            0 -1 13 -2.2796506527811289e-05</internalNodes>
          <leafValues>
            -1. 1.3776245759800076e-03</leafValues></_>
        <_>
          <internalNodes>
            0 -1 13 -1.8040364011540078e-05</internalNodes>
          <leafValues>
            1. -1.3776245759800076e-03</leafValues></_>
        <_>
          <internalNodes>
            0 -1 13 -2.2796506527811289e-05</internalNodes>
          <leafValues>
            -1. 1.3776245759800076e-03</leafValues></_>
        <_>
          <internalNodes>
            0 -1 13 -1.8040364011540078e-05</internalNodes>
          <leafValues>
            1. -1.3776245759800076e-03</leafValues></_>
        <_>
          <internalNodes>
            0 -1 13 -2.2796506527811289e-05</internalNodes>
          <leafValues>
            -1. 1.3776245759800076e-03</leafValues></_>
        <_>
          <internalNodes>
            0 -1 13 -1.8040364011540078e-05</internalNodes>
          <leafValues>
            1. -1.3776245759800076e-03</leafValues></_>
        <_>
          <internalNodes>
            0 -1 13 -2.2796506527811289e-05</internalNodes>
          <leafValues>
            -1. 1.3776245759800076e-03</leafValues></_>
        <_>
          <internalNodes>
            0 -1 13 -1.8040364011540078e-05</internalNodes>
          <leafValues>
            1. -1.3776245759800076e-03</leafValues></_></weakClassifiers></_>
    <!-- stage 7 -->
    <_>
      <maxWeakCount>100</maxWeakCount>
      <stageThreshold>-2.1719026565551758e+00</stageThreshold>
      <weakClassifiers>
        <_>
          <internalNodes>
            0 -1 302 1.3837654842063785e-04</internalNodes>
          <leafValues>
            -5.1999998092651367e-01 8.6363637447357178e-01</leafValues></_>
        <_>
          <internalNodes>
            0 -1 384 3.2890817237785086e-05</internalNodes>
          <leafValues>
            -5.1932066679000854e-01 8.7785267829895020e-01</leafValues></_>
        <_>
          <internalNodes>
            0 -1 154 4.2957144614774734e-05</internalNodes>
          <leafValues>
            -3.4863573312759399e-01 9.1299051046371460e-01</leafValues></_>
        <_>
          <internalNodes>
            0 -1 289 1.3498179032467306e-04</internalNodes>
          <leafValues>
            -3.9832773804664612e-01 7.7485090494155884e-01</leafValues></_>
        <_>
          <internalNodes>
            0 -1 236 9.7206368809565902e-04</internalNodes>
          <leafValues>
            -3.6372083425521851e-01 7.7317732572555542e-01</leafValues></_>
        <_>
          <internalNodes>
            0 -1 59 -1.4663871843367815e-04</internalNodes>
          <leafValues>
            -9.7424769401550293e-01 3.6566257476806641e-01</leafValues></_>
        <_>
          <internalNodes>
            0 -1 179 2.2870895918458700e-03</internalNodes>
          <leafValues>
            -3.4338006377220154e-01 8.5149902105331421e-01</leafValues></_>
        <_>
          <internalNodes>
            0 -1 378 -5.5956355936359614e-05</internalNodes>
          <leafValues>
            -8.0116200447082520e-01 2.8270110487937927e-01</leafValues></_>
        <_>
          <internalNodes>
            0 -1 212 -2.6322971098124981e-04</internalNodes>
          <leafValues>
            8.5695636272430420e-01 -3.2124280929565430e-01</leafValues></_>
        <_>
          <internalNodes>
            0 -1 79 5.3159005939960480e-02</internalNodes>
          <leafValues>
            -9.8731048405170441e-02 9.3034946918487549e-01</leafValues></_>
        <_>
          <internalNodes>
            0 -1 131 2.4130209349095821e-03</internalNodes>
          <leafValues>
            2.0662371814250946e-01 -8.0801928043365479e-01</leafValues></_>
        <_>
          <internalNodes>
            0 -1 205 -2.5847186334431171e-03</internalNodes>
          <leafValues>
            1. -1.3741508126258850e-01</leafValues></_>
        <_>
          <internalNodes>
            0 -1 290 3.5853611188940704e-04</internalNodes>
          <leafValues>
            -4.6097204089164734e-02 1.</leafValues></_>
        <_>
          <internalNodes>
            0 -1 60 -9.1229485406074673e-06</internalNodes>
          <leafValues>
            -9.0679997205734253e-01 1.1352936923503876e-01</leafValues></_>
        <_>
          <internalNodes>
            0 -1 325 -1.6142360982485116e-04</internalNodes>
          <leafValues>
            9.1073560714721680e-01 -9.1349594295024872e-02</leafValues></_>
        <_>
          <internalNodes>
            0 -1 353 3.5963792470283806e-05</internalNodes>
          <leafValues>
            8.4131784737110138e-02 -9.1598486900329590e-01</leafValues></_>
        <_>
          <internalNodes>
            0 -1 343 -2.9907450079917908e-03</internalNodes>
          <leafValues>
            1. -5.3613249212503433e-02</leafValues></_>
        <_>
          <internalNodes>
            0 -1 76 -4.4560700654983521e-02</internalNodes>
          <leafValues>
            -7.9759138822555542e-01 4.5717857778072357e-02</leafValues></_>
        <_>
          <internalNodes>
            0 -1 237 2.1500851289601997e-05</internalNodes>
          <leafValues>
            -2.2073868662118912e-02 1.</leafValues></_>
        <_>
          <internalNodes>
            0 -1 132 2.6928255465463735e-05</internalNodes>
          <leafValues>
            1.5002970583736897e-02 -1.</leafValues></_>
        <_>
          <internalNodes>
            0 -1 153 -1.9876455553458072e-05</internalNodes>
          <leafValues>
            1. -2.0476665347814560e-02</leafValues></_>
        <_>
          <internalNodes>
            0 -1 168 -9.8900425655301660e-05</internalNodes>
          <leafValues>
            -1. 1.1427279561758041e-02</leafValues></_>
        <_>
          <internalNodes>
            0 -1 147 -5.7314540754305199e-05</internalNodes>
          <leafValues>
            1. -9.3612251803278923e-03</leafValues></_>
        <_>
          <internalNodes>
            0 -1 55 -4.3955037835985422e-04</internalNodes>
          <leafValues>
            -1. -2.7346365527591843e-07</leafValues></_>
        <_>
          <internalNodes>
            0 -1 97 2.6312468107789755e-03</internalNodes>
          <leafValues>
            -1.5992545522749424e-03 1.</leafValues></_>
        <_>
          <internalNodes>
            0 -1 49 -5.9937341138720512e-03</internalNodes>
          <leafValues>
            -1. 1.1841072700917721e-03</leafValues></_>
        <_>
          <internalNodes>
            0 -1 48 -2.0321551710367203e-03</internalNodes>
          <leafValues>
            1. -2.5381431914865971e-03</leafValues></_>
        <_>
          <internalNodes>
            0 -1 37 9.6951252999133430e-06</internalNodes>
          <leafValues>
            4.6212617307901382e-03 -1.</leafValues></_>
        <_>
          <internalNodes>
            0 -1 37 2.0643172319978476e-05</internalNodes>
          <leafValues>
            -4.6212342567741871e-03 1.</leafValues></_>
        <_>
          <internalNodes>
            0 -1 26 -4.0436035487800837e-04</internalNodes>
          <leafValues>
            -1. 4.6212342567741871e-03</leafValues></_>
        <_>
          <internalNodes>
            0 -1 56 -1.5434713568538427e-03</internalNodes>
          <leafValues>
            1. -4.6212342567741871e-03</leafValues></_>
        <_>
          <internalNodes>
            0 -1 23 5.9032747230958194e-05</internalNodes>
          <leafValues>
            -3.2897144564003611e-08 -1.</leafValues></_>
        <_>
          <internalNodes>
            0 -1 23 6.3416533521376550e-05</internalNodes>
          <leafValues>
            2.6383996339963706e-16 1.</leafValues></_>
        <_>
          <internalNodes>
            0 -1 23 5.9032747230958194e-05</internalNodes>
          <leafValues>
            5.1630208394338683e-17 -1.</leafValues></_>
        <_>
          <internalNodes>
            0 -1 23 6.3416533521376550e-05</internalNodes>
          <leafValues>
            -7.8209707217718073e-16 1.</leafValues></_>
        <_>
          <internalNodes>
            0 -1 23 5.9032747230958194e-05</internalNodes>
          <leafValues>
            1.1616797467752633e-16 -1.</leafValues></_>
        <_>
          <internalNodes>
            0 -1 23 6.3416533521376550e-05</internalNodes>
          <leafValues>
            3.3922282521083600e-16 1.</leafValues></_>
        <_>
          <internalNodes>
            0 -1 23 5.9032747230958194e-05</internalNodes>
          <leafValues>
            -1.9730115787917749e-16 -1.</leafValues></_>
        <_>
          <internalNodes>
            0 -1 23 6.3416533521376550e-05</internalNodes>
          <leafValues>
            -7.2932903714560595e-16 1.</leafValues></_>
        <_>
          <internalNodes>
            0 -1 23 5.9032747230958194e-05</internalNodes>
          <leafValues>
            7.5601376459255842e-17 -1.</leafValues></_>
        <_>
          <internalNodes>
            0 -1 23 6.3416533521376550e-05</internalNodes>
          <leafValues>
            6.6148450386717427e-16 1.</leafValues></_>
        <_>
          <internalNodes>
            0 -1 23 5.9032747230958194e-05</internalNodes>
          <leafValues>
            4.5729614756365167e-16 -1.</leafValues></_>
        <_>
          <internalNodes>
            0 -1 23 6.3416533521376550e-05</internalNodes>
          <leafValues>
            -1.0044764668746143e-15 1.</leafValues></_>
        <_>
          <internalNodes>
            0 -1 23 5.9032747230958194e-05</internalNodes>
          <leafValues>
            1.2354371258909016e-16 -1.</leafValues></_>
        <_>
          <internalNodes>
            0 -1 23 6.3416533521376550e-05</internalNodes>
          <leafValues>
            5.8044796183084890e-16 1.</leafValues></_>
        <_>
          <internalNodes>
            0 -1 23 5.9032747230958194e-05</internalNodes>
          <leafValues>
            -1.5304669070512509e-16 -1.</leafValues></_>
        <_>
          <internalNodes>
            0 -1 23 6.3416533521376550e-05</internalNodes>
          <leafValues>
            -8.2355764087938422e-16 1.</leafValues></_>
        <_>
          <internalNodes>
            0 -1 23 5.9032747230958194e-05</internalNodes>
          <leafValues>
            1.4013913943372103e-16 -1.</leafValues></_>
        <_>
          <internalNodes>
            0 -1 23 6.3416533521376550e-05</internalNodes>
          <leafValues>
            6.4075421951607253e-16 1.</leafValues></_>
        <_>
          <internalNodes>
            0 -1 23 5.9032747230958194e-05</internalNodes>
          <leafValues>
            -1.5304669070512509e-16 -1.</leafValues></_>
        <_>
          <internalNodes>
            0 -1 23 6.3416533521376550e-05</internalNodes>
          <leafValues>
            -8.2355764087938422e-16 1.</leafValues></_>
        <_>
          <internalNodes>
            0 -1 23 5.9032747230958194e-05</internalNodes>
          <leafValues>
            1.4013913943372103e-16 -1.</leafValues></_>
        <_>
          <internalNodes>
            0 -1 23 6.3416533521376550e-05</internalNodes>
          <leafValues>
            6.4075421951607253e-16 1.</leafValues></_>
        <_>
          <internalNodes>
            0 -1 23 5.9032747230958194e-05</internalNodes>
          <leafValues>
            -1.5304669070512509e-16 -1.</leafValues></_>
        <_>
          <internalNodes>
            0 -1 23 6.3416533521376550e-05</internalNodes>
          <leafValues>
            -8.2355764087938422e-16 1.</leafValues></_>
        <_>
          <internalNodes>
            0 -1 23 5.9032747230958194e-05</internalNodes>
          <leafValues>
            1.4013913943372103e-16 -1.</leafValues></_>
        <_>
          <internalNodes>
            0 -1 23 6.3416533521376550e-05</internalNodes>
          <leafValues>
            6.4075421951607253e-16 1.</leafValues></_>
        <_>
          <internalNodes>
            0 -1 23 5.9032747230958194e-05</internalNodes>
          <leafValues>
            -1.5304669070512509e-16 -1.</leafValues></_>
        <_>
          <internalNodes>
            0 -1 23 6.3416533521376550e-05</internalNodes>
          <leafValues>
            -8.2355764087938422e-16 1.</leafValues></_>
        <_>
          <internalNodes>
            0 -1 23 5.9032747230958194e-05</internalNodes>
          <leafValues>
            1.4013913943372103e-16 -1.</leafValues></_>
        <_>
          <internalNodes>
            0 -1 23 6.3416533521376550e-05</internalNodes>
          <leafValues>
            6.4075421951607253e-16 1.</leafValues></_>
        <_>
          <internalNodes>
            0 -1 23 5.9032747230958194e-05</internalNodes>
          <leafValues>
            -1.5304669070512509e-16 -1.</leafValues></_>
        <_>
          <internalNodes>
            0 -1 23 6.3416533521376550e-05</internalNodes>
          <leafValues>
            -8.2355764087938422e-16 1.</leafValues></_>
        <_>
          <internalNodes>
            0 -1 23 5.9032747230958194e-05</internalNodes>
          <leafValues>
            1.4013913943372103e-16 -1.</leafValues></_>
        <_>
          <internalNodes>
            0 -1 23 6.3416533521376550e-05</internalNodes>
          <leafValues>
            6.4075421951607253e-16 1.</leafValues></_>
        <_>
          <internalNodes>
            0 -1 23 5.9032747230958194e-05</internalNodes>
          <leafValues>
            -1.5304669070512509e-16 -1.</leafValues></_>
        <_>
          <internalNodes>
            0 -1 23 6.3416533521376550e-05</internalNodes>
          <leafValues>
            -8.2355764087938422e-16 1.</leafValues></_>
        <_>
          <internalNodes>
            0 -1 23 5.9032747230958194e-05</internalNodes>
          <leafValues>
            1.4013913943372103e-16 -1.</leafValues></_>
        <_>
          <internalNodes>
            0 -1 23 6.3416533521376550e-05</internalNodes>
          <leafValues>
            6.4075421951607253e-16 1.</leafValues></_>
        <_>
          <internalNodes>
            0 -1 23 5.9032747230958194e-05</internalNodes>
          <leafValues>
            -1.5304669070512509e-16 -1.</leafValues></_>
        <_>
          <internalNodes>
            0 -1 23 6.3416533521376550e-05</internalNodes>
          <leafValues>
            -8.2355764087938422e-16 1.</leafValues></_>
        <_>
          <internalNodes>
            0 -1 23 5.9032747230958194e-05</internalNodes>
          <leafValues>
            6.0849887401238375e-17 -1.</leafValues></_>
        <_>
          <internalNodes>
            0 -1 23 6.3416533521376550e-05</internalNodes>
          <leafValues>
            5.4087193555716782e-16 1.</leafValues></_>
        <_>
          <internalNodes>
            0 -1 23 5.9032747230958194e-05</internalNodes>
          <leafValues>
            4.0382200469142203e-16 -1.</leafValues></_>
        <_>
          <internalNodes>
            0 -1 23 6.3416533521376550e-05</internalNodes>
          <leafValues>
            -1.0233222087971936e-15 1.</leafValues></_>
        <_>
          <internalNodes>
            0 -1 23 5.9032747230958194e-05</internalNodes>
          <leafValues>
            8.1133189819096067e-17 -1.</leafValues></_>
        <_>
          <internalNodes>
            0 -1 23 6.3416533521376550e-05</internalNodes>
          <leafValues>
            5.8610164205597534e-16 1.</leafValues></_>
        <_>
          <internalNodes>
            0 -1 23 5.9032747230958194e-05</internalNodes>
          <leafValues>
            -1.3460732607388081e-16 -1.</leafValues></_>
        <_>
          <internalNodes>
            0 -1 23 6.3416533521376550e-05</internalNodes>
          <leafValues>
            -6.6902277946038233e-16 1.</leafValues></_>
        <_>
          <internalNodes>
            0 -1 23 5.9032747230958194e-05</internalNodes>
          <leafValues>
            1.3460732607388081e-16 -1.</leafValues></_>
        <_>
          <internalNodes>
            0 -1 23 6.3416533521376550e-05</internalNodes>
          <leafValues>
            5.8610164205597534e-16 1.</leafValues></_>
        <_>
          <internalNodes>
            0 -1 23 5.9032747230958194e-05</internalNodes>
          <leafValues>
            -1.3460732607388081e-16 -1.</leafValues></_>
        <_>
          <internalNodes>
            0 -1 23 6.3416533521376550e-05</internalNodes>
          <leafValues>
            -6.6902277946038233e-16 1.</leafValues></_>
        <_>
          <internalNodes>
            0 -1 23 5.9032747230958194e-05</internalNodes>
          <leafValues>
            1.3460732607388081e-16 -1.</leafValues></_>
        <_>
          <internalNodes>
            0 -1 23 6.3416533521376550e-05</internalNodes>
          <leafValues>
            5.8610164205597534e-16 1.</leafValues></_>
        <_>
          <internalNodes>
            0 -1 23 5.9032747230958194e-05</internalNodes>
          <leafValues>
            -1.3460732607388081e-16 -1.</leafValues></_>
        <_>
          <internalNodes>
            0 -1 23 6.3416533521376550e-05</internalNodes>
          <leafValues>
            -6.6902277946038233e-16 1.</leafValues></_>
        <_>
          <internalNodes>
            0 -1 23 5.9032747230958194e-05</internalNodes>
          <leafValues>
            1.3460732607388081e-16 -1.</leafValues></_>
        <_>
          <internalNodes>
            0 -1 23 6.3416533521376550e-05</internalNodes>
          <leafValues>
            5.8610164205597534e-16 1.</leafValues></_>
        <_>
          <internalNodes>
            0 -1 23 5.9032747230958194e-05</internalNodes>
          <leafValues>
            -1.3460732607388081e-16 -1.</leafValues></_>
        <_>
          <internalNodes>
            0 -1 23 6.3416533521376550e-05</internalNodes>
          <leafValues>
            -6.6902277946038233e-16 1.</leafValues></_>
        <_>
          <internalNodes>
            0 -1 23 5.9032747230958194e-05</internalNodes>
          <leafValues>
            1.3460732607388081e-16 -1.</leafValues></_>
        <_>
          <internalNodes>
            0 -1 23 6.3416533521376550e-05</internalNodes>
          <leafValues>
            5.8610164205597534e-16 1.</leafValues></_>
        <_>
          <internalNodes>
            0 -1 23 5.9032747230958194e-05</internalNodes>
          <leafValues>
            -1.3460732607388081e-16 -1.</leafValues></_>
        <_>
          <internalNodes>
            0 -1 23 6.3416533521376550e-05</internalNodes>
          <leafValues>
            -6.6902277946038233e-16 1.</leafValues></_>
        <_>
          <internalNodes>
            0 -1 23 5.9032747230958194e-05</internalNodes>
          <leafValues>
            1.3460732607388081e-16 -1.</leafValues></_>
        <_>
          <internalNodes>
            0 -1 23 6.3416533521376550e-05</internalNodes>
          <leafValues>
            5.8610164205597534e-16 1.</leafValues></_>
        <_>
          <internalNodes>
            0 -1 23 5.9032747230958194e-05</internalNodes>
          <leafValues>
            3.4112817288612534e-16 -1.</leafValues></_>
        <_>
          <internalNodes>
            0 -1 23 6.3416533521376550e-05</internalNodes>
          <leafValues>
            -1.0628981291917563e-15 1.</leafValues></_>
        <_>
          <internalNodes>
            0 -1 23 5.9032747230958194e-05</internalNodes>
          <leafValues>
            1.8439361322521833e-18 -1.</leafValues></_></weakClassifiers></_>
    <!-- stage 8 -->
    <_>
      <maxWeakCount>30</maxWeakCount>
      <stageThreshold>-2.2386684417724609e+00</stageThreshold>
      <weakClassifiers>
        <_>
          <internalNodes>
            0 -1 141 3.0715082539245486e-04</internalNodes>
          <leafValues>
            -5.3125000000000000e-01 9.2941176891326904e-01</leafValues></_>
        <_>
          <internalNodes>
            0 -1 349 3.8246675103437155e-05</internalNodes>
          <leafValues>
            -5.0815355777740479e-01 9.2793047428131104e-01</leafValues></_>
        <_>
          <internalNodes>
            0 -1 72 1.4208992943167686e-03</internalNodes>
          <leafValues>
            -3.9991369843482971e-01 9.6566069126129150e-01</leafValues></_>
        <_>
          <internalNodes>
            0 -1 402 -2.5791096049943008e-05</internalNodes>
          <leafValues>
            9.8280280828475952e-01 -3.7220358848571777e-01</leafValues></_>
        <_>
          <internalNodes>
            0 -1 372 2.1830662153661251e-03</internalNodes>
          <leafValues>
            -2.1756696701049805e-01 1.</leafValues></_>
        <_>
          <internalNodes>
            0 -1 135 -2.2744094021618366e-03</internalNodes>
          <leafValues>
            1. -1.4945800602436066e-01</leafValues></_>
        <_>
          <internalNodes>
            0 -1 369 -1.3954211026430130e-03</internalNodes>
          <leafValues>
            1. -1.1560674756765366e-01</leafValues></_>
        <_>
          <internalNodes>
            0 -1 157 3.4195778425782919e-04</internalNodes>
          <leafValues>
            -7.8900247812271118e-02 9.5528519153594971e-01</leafValues></_>
        <_>
          <internalNodes>
            0 -1 221 -1.9872494041919708e-02</internalNodes>
          <leafValues>
            -8.7568187713623047e-01 2.2150900959968567e-01</leafValues></_>
        <_>
          <internalNodes>
            0 -1 178 6.2210048781707883e-04</internalNodes>
          <leafValues>
            -1.2978072464466095e-01 1.</leafValues></_>
        <_>
          <internalNodes>
            0 -1 291 1.0861340910196304e-02</internalNodes>
          <leafValues>
            9.6677526831626892e-02 -1.</leafValues></_>
        <_>
          <internalNodes>
            0 -1 67 8.4012895822525024e-03</internalNodes>
          <leafValues>
            -7.7661141753196716e-02 1.</leafValues></_>
        <_>
          <internalNodes>
            0 -1 216 -4.6658256906084716e-05</internalNodes>
          <leafValues>
            -9.0924316644668579e-01 5.7316791266202927e-02</leafValues></_>
        <_>
          <internalNodes>
            0 -1 284 -2.2408907170756720e-05</internalNodes>
          <leafValues>
            1. -3.5049829632043839e-02</leafValues></_>
        <_>
          <internalNodes>
            0 -1 226 -1.4751021808478981e-05</internalNodes>
          <leafValues>
            -1. 1.7922591418027878e-02</leafValues></_>
        <_>
          <internalNodes>
            0 -1 87 -1.0933676967397332e-03</internalNodes>
          <leafValues>
            1. -2.1175818517804146e-02</leafValues></_>
        <_>
          <internalNodes>
            0 -1 344 -1.6445408618892543e-05</internalNodes>
          <leafValues>
            1. -7.1812327951192856e-03</leafValues></_>
        <_>
          <internalNodes>
            0 -1 34 1.8751241441350430e-05</internalNodes>
          <leafValues>
            1.1806705035269260e-02 -1.</leafValues></_>
        <_>
          <internalNodes>
            0 -1 32 3.0176711152307689e-04</internalNodes>
          <leafValues>
            -4.6018282882869244e-03 1.</leafValues></_>
        <_>
          <internalNodes>
            0 -1 33 -2.2787820853409357e-05</internalNodes>
          <leafValues>
            -1. 4.6023442409932613e-03</leafValues></_>
        <_>
          <internalNodes>
            0 -1 25 -5.5607917602173984e-05</internalNodes>
          <leafValues>
            1. -1.7962384736165404e-03</leafValues></_>
        <_>
          <internalNodes>
            0 -1 29 9.9722172308247536e-05</internalNodes>
          <leafValues>
            4.0779486298561096e-03 -1.</leafValues></_>
        <_>
          <internalNodes>
            0 -1 27 6.0302401834633201e-05</internalNodes>
          <leafValues>
            -2.2816737182438374e-03 1.</leafValues></_>
        <_>
          <internalNodes>
            0 -1 53 -3.7946902215480804e-02</internalNodes>
          <leafValues>
            -1. 2.2816923446953297e-03</leafValues></_>
        <_>
          <internalNodes>
            0 -1 53 -1.9851677119731903e-02</internalNodes>
          <leafValues>
            1. -2.2816923446953297e-03</leafValues></_>
        <_>
          <internalNodes>
            0 -1 20 7.9947691119741648e-05</internalNodes>
          <leafValues>
            -3.9596015355414238e-09 -1.</leafValues></_>
        <_>
          <internalNodes>
            0 -1 7 2.3036885977489874e-05</internalNodes>
          <leafValues>
            -1.7930530011653900e-03 1.</leafValues></_>
        <_>
          <internalNodes>
            0 -1 1 -1.7849650248535909e-05</internalNodes>
          <leafValues>
            -1. 1.7930511385202408e-03</leafValues></_>
        <_>
          <internalNodes>
            0 -1 1 3.5450670111458749e-05</internalNodes>
          <leafValues>
            2.2380738519132137e-03 -1.</leafValues></_>
        <_>
          <internalNodes>
            0 -1 24 6.6284654894843698e-04</internalNodes>
          <leafValues>
            -2.2380682639777660e-03 1.</leafValues></_></weakClassifiers></_>
    <!-- stage 9 -->
    <_>
      <maxWeakCount>25</maxWeakCount>
      <stageThreshold>-2.2386684417724609e+00</stageThreshold>
      <weakClassifiers>
        <_>
          <internalNodes>
            0 -1 243 -1.3954093446955085e-04</internalNodes>
          <leafValues>
            8.7234044075012207e-01 -5.9663867950439453e-01</leafValues></_>
        <_>
          <internalNodes>
            0 -1 138 3.4517222084105015e-03</internalNodes>
          <leafValues>
            -4.4643801450729370e-01 9.6092832088470459e-01</leafValues></_>
        <_>
          <internalNodes>
            0 -1 220 2.6957390218740329e-05</internalNodes>
          <leafValues>
            -4.3303585052490234e-01 8.2024222612380981e-01</leafValues></_>
        <_>
          <internalNodes>
            0 -1 352 3.8426974788308144e-04</internalNodes>
          <leafValues>
            -3.7515458464622498e-01 9.2821419239044189e-01</leafValues></_>
        <_>
          <internalNodes>
            0 -1 174 8.3023831248283386e-03</internalNodes>
          <leafValues>
            -3.0950090289115906e-01 1.</leafValues></_>
        <_>
          <internalNodes>
            0 -1 279 -1.8114086706191301e-03</internalNodes>
          <leafValues>
            9.3042910099029541e-01 -1.6825304925441742e-01</leafValues></_>
        <_>
          <internalNodes>
            0 -1 239 -5.1796479965560138e-05</internalNodes>
          <leafValues>
            -7.9801243543624878e-01 3.5703611373901367e-01</leafValues></_>
        <_>
          <internalNodes>
            0 -1 340 3.8928253343328834e-04</internalNodes>
          <leafValues>
            -2.5455665588378906e-01 9.5323228836059570e-01</leafValues></_>
        <_>
          <internalNodes>
            0 -1 270 4.7041551442816854e-04</internalNodes>
          <leafValues>
            -1.1589141190052032e-01 8.6168658733367920e-01</leafValues></_>
        <_>
          <internalNodes>
            0 -1 197 -1.4374206773936749e-02</internalNodes>
          <leafValues>
            -8.6856490373611450e-01 1.6785916686058044e-01</leafValues></_>
        <_>
          <internalNodes>
            0 -1 208 3.1383955501951277e-04</internalNodes>
          <leafValues>
            -1.2380570173263550e-01 1.</leafValues></_>
        <_>
          <internalNodes>
            0 -1 393 1.0983698070049286e-02</internalNodes>
          <leafValues>
            1.1686559021472931e-01 -1.</leafValues></_>
        <_>
          <internalNodes>
            0 -1 144 -2.6965921279042959e-03</internalNodes>
          <leafValues>
            9.1198706626892090e-01 -9.9905498325824738e-02</leafValues></_>
        <_>
          <internalNodes>
            0 -1 194 -2.0390708232298493e-04</internalNodes>
          <leafValues>
            -1. 5.6203253567218781e-02</leafValues></_>
        <_>
          <internalNodes>
            0 -1 202 2.7192260604351759e-03</internalNodes>
          <leafValues>
            -4.5987945050001144e-02 1.</leafValues></_>
        <_>
          <internalNodes>
            0 -1 183 1.7033374751918018e-04</internalNodes>
          <leafValues>
            4.7460991889238358e-02 -1.</leafValues></_>
        <_>
          <internalNodes>
            0 -1 253 3.8895697798579931e-05</internalNodes>
          <leafValues>
            -2.1580882370471954e-02 1.</leafValues></_>
        <_>
          <internalNodes>
            0 -1 199 -6.0191133525222540e-04</internalNodes>
          <leafValues>
            -1. 1.7568614333868027e-02</leafValues></_>
        <_>
          <internalNodes>
            0 -1 140 -2.3279559172806330e-05</internalNodes>
          <leafValues>
            1. -8.4771541878581047e-03</leafValues></_>
        <_>
          <internalNodes>
            0 -1 11 4.3812560761580244e-05</internalNodes>
          <leafValues>
            -2.0307088277604635e-07 -1.</leafValues></_>
        <_>
          <internalNodes>
            0 -1 10 4.4966807763557881e-05</internalNodes>
          <leafValues>
            -2.4356655776500702e-03 1.</leafValues></_>
        <_>
          <internalNodes>
            0 -1 9 8.3615814219228923e-05</internalNodes>
          <leafValues>
            2.4356609210371971e-03 -1.</leafValues></_>
        <_>
          <internalNodes>
            0 -1 90 -1.1529595940373838e-04</internalNodes>
          <leafValues>
            1. -2.4356609210371971e-03</leafValues></_>
        <_>
          <internalNodes>
            0 -1 31 -5.6702381698414683e-05</internalNodes>
          <leafValues>
            -1. -4.8164916499615629e-09</leafValues></_>
        <_>
          <internalNodes>
            0 -1 38 -2.3934391720104031e-05</internalNodes>
          <leafValues>
            1. 8.7553645296235480e-16</leafValues></_></weakClassifiers></_>
    <!-- stage 10 -->
    <_>
      <maxWeakCount>100</maxWeakCount>
      <stageThreshold>-2.1023464202880859e+00</stageThreshold>
      <weakClassifiers>
        <_>
          <internalNodes>
            0 -1 218 5.5383450671797618e-05</internalNodes>
          <leafValues>
            -4.6969696879386902e-01 9.0123456716537476e-01</leafValues></_>
        <_>
          <internalNodes>
            0 -1 171 -1.8456887119100429e-05</internalNodes>
          <leafValues>
            8.3622008562088013e-01 -4.5714807510375977e-01</leafValues></_>
        <_>
          <internalNodes>
            0 -1 292 3.5894830944016576e-05</internalNodes>
          <leafValues>
            -4.7483116388320923e-01 7.6987564563751221e-01</leafValues></_>
        <_>
          <internalNodes>
            0 -1 217 9.6745393238961697e-04</internalNodes>
          <leafValues>
            -3.5881930589675903e-01 9.6383500099182129e-01</leafValues></_>
        <_>
          <internalNodes>
            0 -1 304 2.4687481345608830e-04</internalNodes>
          <leafValues>
            -2.7992948889732361e-01 8.7775111198425293e-01</leafValues></_>
        <_>
          <internalNodes>
            0 -1 306 3.9831351023167372e-04</internalNodes>
          <leafValues>
            -2.0145079493522644e-01 8.5870522260665894e-01</leafValues></_>
        <_>
          <internalNodes>
            0 -1 106 9.2256721109151840e-04</internalNodes>
          <leafValues>
            3.4736105799674988e-01 -8.5421967506408691e-01</leafValues></_>
        <_>
          <internalNodes>
            0 -1 337 3.0000152764841914e-04</internalNodes>
          <leafValues>
            -3.0285614728927612e-01 7.7652490139007568e-01</leafValues></_>
        <_>
          <internalNodes>
            0 -1 394 -1.4510455366689712e-04</internalNodes>
          <leafValues>
            -7.4652254581451416e-01 2.3353350162506104e-01</leafValues></_>
        <_>
          <internalNodes>
            0 -1 363 -9.5524170319549739e-05</internalNodes>
          <leafValues>
            9.7768789529800415e-01 -1.7308318614959717e-01</leafValues></_>
        <_>
          <internalNodes>
            0 -1 365 3.2726186327636242e-03</internalNodes>
          <leafValues>
            -9.5375396311283112e-02 1.</leafValues></_>
        <_>
          <internalNodes>
            0 -1 119 -1.0479000047780573e-04</internalNodes>
          <leafValues>
            -8.3774399757385254e-01 1.8669715523719788e-01</leafValues></_>
        <_>
          <internalNodes>
            0 -1 324 -7.9369300510734320e-04</internalNodes>
          <leafValues>
            9.1222697496414185e-01 -1.2584191560745239e-01</leafValues></_>
        <_>
          <internalNodes>
            0 -1 391 9.8196472972631454e-03</internalNodes>
          <leafValues>
            1.1439897865056992e-01 -1.</leafValues></_>
        <_>
          <internalNodes>
            0 -1 207 -1.2825898826122284e-02</internalNodes>
          <leafValues>
            1. -1.0201675444841385e-01</leafValues></_>
        <_>
          <internalNodes>
            0 -1 385 -9.7008465672843158e-05</internalNodes>
          <leafValues>
            -8.8344275951385498e-01 1.0496491193771362e-01</leafValues></_>
        <_>
          <internalNodes>
            0 -1 103 1.7356091411784291e-03</internalNodes>
          <leafValues>
            -1.0594186931848526e-01 9.4606161117553711e-01</leafValues></_>
        <_>
          <internalNodes>
            0 -1 282 -3.1617277272744104e-05</internalNodes>
          <leafValues>
            -7.4247521162033081e-01 9.0873323380947113e-02</leafValues></_>
        <_>
          <internalNodes>
            0 -1 311 -2.5622704997658730e-03</internalNodes>
          <leafValues>
            1. -4.4897649437189102e-02</leafValues></_>
        <_>
          <internalNodes>
            0 -1 190 -1.5333374030888081e-03</internalNodes>
          <leafValues>
            9.4009929895401001e-01 -5.2846174687147141e-02</leafValues></_>
        <_>
          <internalNodes>
            0 -1 328 4.1587518353480846e-05</internalNodes>
          <leafValues>
            6.8631924688816071e-02 -9.5232033729553223e-01</leafValues></_>
        <_>
          <internalNodes>
            0 -1 374 -4.8448666348122060e-05</internalNodes>
          <leafValues>
            9.5159494876861572e-01 -2.7036301791667938e-02</leafValues></_>
        <_>
          <internalNodes>
            0 -1 149 -9.4337956397794187e-06</internalNodes>
          <leafValues>
            -9.3641561269760132e-01 3.3888678997755051e-02</leafValues></_>
        <_>
          <internalNodes>
            0 -1 167 -3.8943864637985826e-04</internalNodes>
          <leafValues>
            1. -1.5078696422278881e-02</leafValues></_>
        <_>
          <internalNodes>
            0 -1 85 -3.1089908443391323e-03</internalNodes>
          <leafValues>
            -1. 1.5305022709071636e-02</leafValues></_>
        <_>
          <internalNodes>
            0 -1 268 7.9482444562017918e-05</internalNodes>
          <leafValues>
            -9.9342716857790947e-03 9.6273714303970337e-01</leafValues></_>
        <_>
          <internalNodes>
            0 -1 160 1.0404297427157871e-05</internalNodes>
          <leafValues>
            1.3848202303051949e-02 -1.</leafValues></_>
        <_>
          <internalNodes>
            0 -1 159 -3.7004094338044524e-05</internalNodes>
          <leafValues>
            1. -1.8644072115421295e-02</leafValues></_>
        <_>
          <internalNodes>
            0 -1 88 -4.2673686402849853e-04</internalNodes>
          <leafValues>
            -1. 1.2126077897846699e-02</leafValues></_>
        <_>
          <internalNodes>
            0 -1 71 -1.6382053727284074e-03</internalNodes>
          <leafValues>
            1. -8.5466997697949409e-03</leafValues></_>
        <_>
          <internalNodes>
            0 -1 51 -2.2641110990662128e-04</internalNodes>
          <leafValues>
            -1. -2.0811010870147584e-07</leafValues></_>
        <_>
          <internalNodes>
            0 -1 51 -6.3989255577325821e-03</internalNodes>
          <leafValues>
            1. 1.2614506995305419e-03</leafValues></_>
        <_>
          <internalNodes>
            0 -1 50 -7.0957443676888943e-03</internalNodes>
          <leafValues>
            -1. 6.6909822127314555e-10</leafValues></_>
        <_>
          <internalNodes>
            0 -1 173 -4.1582989506423473e-03</internalNodes>
          <leafValues>
            1. -1.0339760920032859e-03</leafValues></_>
        <_>
          <internalNodes>
            0 -1 94 -8.0095385783351958e-05</internalNodes>
          <leafValues>
            -1. 2.4263609666377306e-03</leafValues></_>
        <_>
          <internalNodes>
            0 -1 137 -7.3550903471186757e-04</internalNodes>
          <leafValues>
            1. -2.6538299862295389e-03</leafValues></_>
        <_>
          <internalNodes>
            0 -1 70 -3.0366987921297550e-03</internalNodes>
          <leafValues>
            -1. -6.2301697134614642e-09</leafValues></_>
        <_>
          <internalNodes>
            0 -1 51 -6.3989255577325821e-03</internalNodes>
          <leafValues>
            1. -1.1010615162676540e-15</leafValues></_>
        <_>
          <internalNodes>
            0 -1 51 -3.7281317636370659e-03</internalNodes>
          <leafValues>
            -1. 1.3453242189156393e-15</leafValues></_>
        <_>
          <internalNodes>
            0 -1 51 -6.3989255577325821e-03</internalNodes>
          <leafValues>
            1. -1.3787039874219183e-15</leafValues></_>
        <_>
          <internalNodes>
            0 -1 51 -3.7281317636370659e-03</internalNodes>
          <leafValues>
            -1. 1.3005423281481332e-15</leafValues></_>
        <_>
          <internalNodes>
            0 -1 51 -6.3989255577325821e-03</internalNodes>
          <leafValues>
            1. -1.3882122498922031e-15</leafValues></_>
        <_>
          <internalNodes>
            0 -1 51 -3.7281317636370659e-03</internalNodes>
          <leafValues>
            -1. 1.3024082358518161e-15</leafValues></_>
        <_>
          <internalNodes>
            0 -1 51 -6.3989255577325821e-03</internalNodes>
          <leafValues>
            1. -1.3882122498922031e-15</leafValues></_>
        <_>
          <internalNodes>
            0 -1 51 -3.7281317636370659e-03</internalNodes>
          <leafValues>
            -1. 1.3024082358518161e-15</leafValues></_>
        <_>
          <internalNodes>
            0 -1 51 -6.3989255577325821e-03</internalNodes>
          <leafValues>
            1. -1.3882122498922031e-15</leafValues></_>
        <_>
          <internalNodes>
            0 -1 51 -3.7281317636370659e-03</internalNodes>
          <leafValues>
            -1. 1.3024082358518161e-15</leafValues></_>
        <_>
          <internalNodes>
            0 -1 51 -6.3989255577325821e-03</internalNodes>
          <leafValues>
            1. -1.3882122498922031e-15</leafValues></_>
        <_>
          <internalNodes>
            0 -1 51 -3.7281317636370659e-03</internalNodes>
          <leafValues>
            -1. 1.3024082358518161e-15</leafValues></_>
        <_>
          <internalNodes>
            0 -1 51 -6.3989255577325821e-03</internalNodes>
          <leafValues>
            1. -1.3882122498922031e-15</leafValues></_>
        <_>
          <internalNodes>
            0 -1 51 -3.7281317636370659e-03</internalNodes>
          <leafValues>
            -1. 1.3024082358518161e-15</leafValues></_>
        <_>
          <internalNodes>
            0 -1 51 -6.3989255577325821e-03</internalNodes>
          <leafValues>
            1. -1.4966069502732175e-15</leafValues></_>
        <_>
          <internalNodes>
            0 -1 51 -3.7281317636370659e-03</internalNodes>
          <leafValues>
            -1. 1.2986764204444504e-15</leafValues></_>
        <_>
          <internalNodes>
            0 -1 51 -6.3989255577325821e-03</internalNodes>
          <leafValues>
            1. -1.4300487953438691e-15</leafValues></_>
        <_>
          <internalNodes>
            0 -1 51 -3.7281317636370659e-03</internalNodes>
          <leafValues>
            -1. 1.3789107693401668e-15</leafValues></_>
        <_>
          <internalNodes>
            0 -1 51 -6.3989255577325821e-03</internalNodes>
          <leafValues>
            1. 3.4039726286198369e-16</leafValues></_>
        <_>
          <internalNodes>
            0 -1 51 -3.7281317636370659e-03</internalNodes>
          <leafValues>
            -1. -1.3192015110640798e-15</leafValues></_>
        <_>
          <internalNodes>
            0 -1 51 -6.3989255577325821e-03</internalNodes>
          <leafValues>
            1. 9.2991205064869983e-16</leafValues></_>
        <_>
          <internalNodes>
            0 -1 51 -3.7281317636370659e-03</internalNodes>
          <leafValues>
            -1. -1.1214145533198724e-15</leafValues></_>
        <_>
          <internalNodes>
            0 -1 51 -6.3989255577325821e-03</internalNodes>
          <leafValues>
            1. 9.8696183722864509e-16</leafValues></_>
        <_>
          <internalNodes>
            0 -1 51 -3.7281317636370659e-03</internalNodes>
          <leafValues>
            -1. -1.0449120198315217e-15</leafValues></_>
        <_>
          <internalNodes>
            0 -1 51 -6.3989255577325821e-03</internalNodes>
          <leafValues>
            1. 1.4813937091449382e-15</leafValues></_>
        <_>
          <internalNodes>
            0 -1 51 -3.7281317636370659e-03</internalNodes>
          <leafValues>
            -1. -1.2333694390573150e-15</leafValues></_>
        <_>
          <internalNodes>
            0 -1 51 -6.3989255577325821e-03</internalNodes>
          <leafValues>
            1. 9.2230537714500099e-16</leafValues></_>
        <_>
          <internalNodes>
            0 -1 51 -3.7281317636370659e-03</internalNodes>
          <leafValues>
            -1. -1.0467779275352045e-15</leafValues></_>
        <_>
          <internalNodes>
            0 -1 51 -6.3989255577325821e-03</internalNodes>
          <leafValues>
            1. 1.4775903194535296e-15</leafValues></_>
        <_>
          <internalNodes>
            0 -1 51 -3.7281317636370659e-03</internalNodes>
          <leafValues>
            -1. -1.3415924035082736e-15</leafValues></_>
        <_>
          <internalNodes>
            0 -1 51 -6.3989255577325821e-03</internalNodes>
          <leafValues>
            1. 1.3539823779442359e-15</leafValues></_>
        <_>
          <internalNodes>
            0 -1 51 -3.7281317636370659e-03</internalNodes>
          <leafValues>
            -1. -1.3621174941279030e-15</leafValues></_>
        <_>
          <internalNodes>
            0 -1 51 -6.3989255577325821e-03</internalNodes>
          <leafValues>
            1. 1.4148355542155898e-15</leafValues></_>
        <_>
          <internalNodes>
            0 -1 51 -3.7281317636370659e-03</internalNodes>
          <leafValues>
            -1. -1.3621174941279030e-15</leafValues></_>
        <_>
          <internalNodes>
            0 -1 51 -6.3989255577325821e-03</internalNodes>
          <leafValues>
            1. 1.4148355542155898e-15</leafValues></_>
        <_>
          <internalNodes>
            0 -1 51 -3.7281317636370659e-03</internalNodes>
          <leafValues>
            -1. -1.3621174941279030e-15</leafValues></_>
        <_>
          <internalNodes>
            0 -1 51 -6.3989255577325821e-03</internalNodes>
          <leafValues>
            1. 1.4148355542155898e-15</leafValues></_>
        <_>
          <internalNodes>
            0 -1 51 -3.7281317636370659e-03</internalNodes>
          <leafValues>
            -1. -1.4087653984782103e-15</leafValues></_>
        <_>
          <internalNodes>
            0 -1 51 -6.3989255577325821e-03</internalNodes>
          <leafValues>
            1. 1.3596873566022304e-15</leafValues></_>
        <_>
          <internalNodes>
            0 -1 51 -3.7281317636370659e-03</internalNodes>
          <leafValues>
            -1. -1.4031675694880434e-15</leafValues></_>
        <_>
          <internalNodes>
            0 -1 51 -6.3989255577325821e-03</internalNodes>
          <leafValues>
            1. 1.3729990087639238e-15</leafValues></_>
        <_>
          <internalNodes>
            0 -1 51 -3.7281317636370659e-03</internalNodes>
          <leafValues>
            -1. 3.9370792837539325e-16</leafValues></_>
        <_>
          <internalNodes>
            0 -1 51 -6.3989255577325821e-03</internalNodes>
          <leafValues>
            1. -2.8524909833584883e-17</leafValues></_>
        <_>
          <internalNodes>
            0 -1 51 -3.7281317636370659e-03</internalNodes>
          <leafValues>
            -1. -1.4722064721616628e-15</leafValues></_>
        <_>
          <internalNodes>
            0 -1 51 -6.3989255577325821e-03</internalNodes>
          <leafValues>
            1. 1.2950308965185863e-15</leafValues></_>
        <_>
          <internalNodes>
            0 -1 51 -3.7281317636370659e-03</internalNodes>
          <leafValues>
            -1. -1.4647427354678132e-15</leafValues></_>
        <_>
          <internalNodes>
            0 -1 51 -6.3989255577325821e-03</internalNodes>
          <leafValues>
            1. 1.3520807889776500e-15</leafValues></_>
        <_>
          <internalNodes>
            0 -1 51 -3.7281317636370659e-03</internalNodes>
          <leafValues>
            -1. 3.4519416926096240e-16</leafValues></_>
        <_>
          <internalNodes>
            0 -1 51 -6.3989255577325821e-03</internalNodes>
          <leafValues>
            1. -2.4721587970986490e-17</leafValues></_>
        <_>
          <internalNodes>
            0 -1 51 -3.7281317636370659e-03</internalNodes>
          <leafValues>
            -1. -1.4610109200604475e-15</leafValues></_>
        <_>
          <internalNodes>
            0 -1 51 -6.3989255577325821e-03</internalNodes>
          <leafValues>
            1. 1.2988342862099950e-15</leafValues></_>
        <_>
          <internalNodes>
            0 -1 51 -3.7281317636370659e-03</internalNodes>
          <leafValues>
            -1. -1.4031675694880434e-15</leafValues></_>
        <_>
          <internalNodes>
            0 -1 51 -6.3989255577325821e-03</internalNodes>
          <leafValues>
            1. 1.2417843937509313e-15</leafValues></_>
        <_>
          <internalNodes>
            0 -1 51 -3.7281317636370659e-03</internalNodes>
          <leafValues>
            -1. 2.8735081868855826e-16</leafValues></_>
        <_>
          <internalNodes>
            0 -1 51 -6.3989255577325821e-03</internalNodes>
          <leafValues>
            1. -3.2328230041822050e-17</leafValues></_>
        <_>
          <internalNodes>
            0 -1 51 -3.7281317636370659e-03</internalNodes>
          <leafValues>
            -1. -1.4684746567542972e-15</leafValues></_>
        <_>
          <internalNodes>
            0 -1 51 -6.3989255577325821e-03</internalNodes>
          <leafValues>
            1. 1.2912276127062961e-15</leafValues></_>
        <_>
          <internalNodes>
            0 -1 51 -3.7281317636370659e-03</internalNodes>
          <leafValues>
            -1. 2.8548491098487545e-16</leafValues></_>
        <_>
          <internalNodes>
            0 -1 51 -6.3989255577325821e-03</internalNodes>
          <leafValues>
            1. -7.2263107117563337e-17</leafValues></_>
        <_>
          <internalNodes>
            0 -1 51 -3.7281317636370659e-03</internalNodes>
          <leafValues>
            -1. -1.4684746567542972e-15</leafValues></_>
        <_>
          <internalNodes>
            0 -1 51 -6.3989255577325821e-03</internalNodes>
          <leafValues>
            1. 1.2912276127062961e-15</leafValues></_>
        <_>
          <internalNodes>
            0 -1 51 -3.7281317636370659e-03</internalNodes>
          <leafValues>
            -1. 2.8548491098487545e-16</leafValues></_>
        <_>
          <internalNodes>
            0 -1 51 -6.3989255577325821e-03</internalNodes>
          <leafValues>
            1. -7.2263107117563337e-17</leafValues></_></weakClassifiers></_>
    <!-- stage 11 -->
    <_>
      <maxWeakCount>42</maxWeakCount>
      <stageThreshold>-2.1109685897827148e+00</stageThreshold>
      <weakClassifiers>
        <_>
          <internalNodes>
            0 -1 35 1.2359076645225286e-03</internalNodes>
          <leafValues>
            -5.1219511032104492e-01 8.2222223281860352e-01</leafValues></_>
        <_>
          <internalNodes>
            0 -1 256 1.6698363469913602e-04</internalNodes>
          <leafValues>
            -4.4347083568572998e-01 8.6771464347839355e-01</leafValues></_>
        <_>
          <internalNodes>
            0 -1 198 5.2556721493601799e-04</internalNodes>
          <leafValues>
            -4.3937981128692627e-01 8.8321322202682495e-01</leafValues></_>
        <_>
          <internalNodes>
            0 -1 96 1.0727089829742908e-03</internalNodes>
          <leafValues>
            -3.8306975364685059e-01 9.1119474172592163e-01</leafValues></_>
        <_>
          <internalNodes>
            0 -1 204 5.2456179400905967e-04</internalNodes>
          <leafValues>
            -2.9896888136863708e-01 9.6788263320922852e-01</leafValues></_>
        <_>
          <internalNodes>
            0 -1 196 8.4604014409705997e-04</internalNodes>
          <leafValues>
            -2.1871186792850494e-01 8.2641023397445679e-01</leafValues></_>
        <_>
          <internalNodes>
            0 -1 113 -2.9930763412266970e-04</internalNodes>
          <leafValues>
            -8.0976158380508423e-01 3.4826907515525818e-01</leafValues></_>
        <_>
          <internalNodes>
            0 -1 382 -1.2150527909398079e-03</internalNodes>
          <leafValues>
            8.9159876108169556e-01 -2.6035931706428528e-01</leafValues></_>
        <_>
          <internalNodes>
            0 -1 408 5.7852501049637794e-04</internalNodes>
          <leafValues>
            2.6268318295478821e-01 -7.9140186309814453e-01</leafValues></_>
        <_>
          <internalNodes>
            0 -1 294 5.1217828877270222e-04</internalNodes>
          <leafValues>
            -2.3525434732437134e-01 9.0643495321273804e-01</leafValues></_>
        <_>
          <internalNodes>
            0 -1 271 3.5816180752590299e-04</internalNodes>
          <leafValues>
            -5.2245460450649261e-02 1.</leafValues></_>
        <_>
          <internalNodes>
            0 -1 410 -7.3060786235146224e-05</internalNodes>
          <leafValues>
            -7.7647888660430908e-01 2.0666511356830597e-01</leafValues></_>
        <_>
          <internalNodes>
            0 -1 156 8.0370262730866671e-04</internalNodes>
          <leafValues>
            -1.3245207071304321e-01 9.2495828866958618e-01</leafValues></_>
        <_>
          <internalNodes>
            0 -1 300 2.8100116178393364e-03</internalNodes>
          <leafValues>
            -6.1472855508327484e-02 8.3397424221038818e-01</leafValues></_>
        <_>
          <internalNodes>
            0 -1 321 -8.3154751337133348e-05</internalNodes>
          <leafValues>
            -7.3172539472579956e-01 1.4419043064117432e-01</leafValues></_>
        <_>
          <internalNodes>
            0 -1 110 3.5536362702259794e-05</internalNodes>
          <leafValues>
            -7.0787750184535980e-02 9.4367951154708862e-01</leafValues></_>
        <_>
          <internalNodes>
            0 -1 354 -2.8987441328354180e-04</internalNodes>
          <leafValues>
            -1. 5.8623332530260086e-02</leafValues></_>
        <_>
          <internalNodes>
            0 -1 172 2.2039574105292559e-04</internalNodes>
          <leafValues>
            -5.1391504704952240e-02 1.</leafValues></_>
        <_>
          <internalNodes>
            0 -1 273 -2.2901593183632940e-05</internalNodes>
          <leafValues>
            -1. 3.4666616469621658e-02</leafValues></_>
        <_>
          <internalNodes>
            0 -1 206 2.5580408982932568e-03</internalNodes>
          <leafValues>
            -2.8467366471886635e-02 1.</leafValues></_>
        <_>
          <internalNodes>
            0 -1 383 -7.1245100116357207e-04</internalNodes>
          <leafValues>
            -9.3959552049636841e-01 2.8622798621654510e-02</leafValues></_>
        <_>
          <internalNodes>
            0 -1 312 1.8000155687332153e-03</internalNodes>
          <leafValues>
            -2.3931551724672318e-02 1.</leafValues></_>
        <_>
          <internalNodes>
            0 -1 405 -6.8704779550898820e-05</internalNodes>
          <leafValues>
            -9.4089949131011963e-01 2.4583816528320313e-02</leafValues></_>
        <_>
          <internalNodes>
            0 -1 366 -6.7226719693280756e-05</internalNodes>
          <leafValues>
            1. -1.2070409953594208e-02</leafValues></_>
        <_>
          <internalNodes>
            0 -1 309 -7.9247984103858471e-05</internalNodes>
          <leafValues>
            -1. 8.6435899138450623e-03</leafValues></_>
        <_>
          <internalNodes>
            0 -1 238 -3.8186768506420776e-05</internalNodes>
          <leafValues>
            1. -2.5992167647927999e-03</leafValues></_>
        <_>
          <internalNodes>
            0 -1 105 -1.6165344277396798e-04</internalNodes>
          <leafValues>
            -1. 1.1383692035451531e-03</leafValues></_>
        <_>
