<?xml version="1.0"?>
<opencv_storage>
<stage3>
  <maxWeakCount>12</maxWeakCount>
  <stageThreshold>-1.7165904045104980e+00</stageThreshold>
  <weakClassifiers>
    <_>
      <internalNodes>
        0 -1 117123 -6.3803442753851414e-04</internalNodes>
      <leafValues>
        7.0454543828964233e-01 -4.0799999237060547e-01</leafValues></_>
    <_>
      <internalNodes>
        0 -1 89267 -2.8319505508989096e-04</internalNodes>
      <leafValues>
        7.7917516231536865e-01 -3.9287659525871277e-01</leafValues></_>
    <_>
      <internalNodes>
        0 -1 146025 2.8028938686475158e-04</internalNodes>
      <leafValues>
        -5.0364840030670166e-01 6.6591566801071167e-01</leafValues></_>
    <_>
      <internalNodes>
        0 -1 113141 1.7597016994841397e-04</internalNodes>
      <leafValues>
        -2.9144769906997681e-01 8.1051427125930786e-01</leafValues></_>
    <_>
      <internalNodes>
        0 -1 87578 2.1430020569823682e-04</internalNodes>
      <leafValues>
        -3.5968849062919617e-01 7.4502140283584595e-01</leafValues></_>
    <_>
      <internalNodes>
        0 -1 98984 1.0525798425078392e-02</internalNodes>
      <leafValues>
        3.6696410179138184e-01 -8.7106907367706299e-01</leafValues></_>
    <_>
      <internalNodes>
        0 -1 142156 3.0469000921584666e-04</internalNodes>
      <leafValues>
        -4.0721017122268677e-01 8.6015564203262329e-01</leafValues></_>
    <_>
      <internalNodes>
        0 -1 5905 3.1749294139444828e-03</internalNodes>
      <leafValues>
        3.5490790009498596e-01 -8.8516622781753540e-01</leafValues></_>
    <_>
      <internalNodes>
        0 -1 116111 -7.5978727545589209e-04</internalNodes>
      <leafValues>
        7.7121359109878540e-01 -3.6296007037162781e-01</leafValues></_>
    <_>
      <internalNodes>
        0 -1 33886 -6.1730393208563328e-03</internalNodes>
      <leafValues>
        -8.3553743362426758e-01 2.7546840906143188e-01</leafValues></_>
    <_>
      <internalNodes>
        0 -1 135873 1.0852026753127575e-03</internalNodes>
      <leafValues>
        -2.5740271806716919e-01 7.2556018829345703e-01</leafValues></_>
    <_>
      <internalNodes>
        0 -1 400 -1.3086230319458991e-04</internalNodes>
      <leafValues>
        -8.2357847690582275e-01 2.6930329203605652e-01</leafValues></_></weakClassifiers></stage3>
</opencv_storage>
