<?xml version="1.0"?>
<opencv_storage>
<stage4>
  <maxWeakCount>10</maxWeakCount>
  <stageThreshold>-1.6227719783782959e+00</stageThreshold>
  <weakClassifiers>
    <_>
      <internalNodes>
        0 -1 141333 -6.1224738601595163e-04</internalNodes>
      <leafValues>
        9.3750000000000000e-01 -3.2885906100273132e-01</leafValues></_>
    <_>
      <internalNodes>
        0 -1 125437 1.8342633848078549e-04</internalNodes>
      <leafValues>
        -5.0299036502838135e-01 6.1070066690444946e-01</leafValues></_>
    <_>
      <internalNodes>
        0 -1 86307 7.4059376493096352e-04</internalNodes>
      <leafValues>
        -4.1203889250755310e-01 7.7780938148498535e-01</leafValues></_>
    <_>
      <internalNodes>
        0 -1 113802 -4.1420513298362494e-04</internalNodes>
      <leafValues>
        7.4467426538467407e-01 -3.4710815548896790e-01</leafValues></_>
    <_>
      <internalNodes>
        0 -1 140295 -5.8539127930998802e-03</internalNodes>
      <leafValues>
        7.2559279203414917e-01 -3.7710469961166382e-01</leafValues></_>
    <_>
      <internalNodes>
        0 -1 97899 -3.1335157109424472e-04</internalNodes>
      <leafValues>
        7.7686238288879395e-01 -2.7476507425308228e-01</leafValues></_>
    <_>
      <internalNodes>
        0 -1 49719 2.4699931964278221e-04</internalNodes>
      <leafValues>
        3.2982599735260010e-01 -7.1572899818420410e-01</leafValues></_>
    <_>
      <internalNodes>
        0 -1 127390 2.9415622702799737e-04</internalNodes>
      <leafValues>
        -3.5469552874565125e-01 6.3950777053833008e-01</leafValues></_>
    <_>
      <internalNodes>
        0 -1 13359 -1.7824986949563026e-02</internalNodes>
      <leafValues>
        -8.6499011516571045e-01 3.1554594635963440e-01</leafValues></_>
    <_>
      <internalNodes>
        0 -1 9303 1.3984680175781250e-01</internalNodes>
      <leafValues>
        3.2941782474517822e-01 -7.9635757207870483e-01</leafValues></_></weakClassifiers></stage4>
</opencv_storage>
