<?xml version="1.0"?>
<opencv_storage>
<stage8>
  <maxWeakCount>30</maxWeakCount>
  <stageThreshold>-2.2386684417724609e+00</stageThreshold>
  <weakClassifiers>
    <_>
      <internalNodes>
        0 -1 35171 3.0715082539245486e-04</internalNodes>
      <leafValues>
        -5.3125000000000000e-01 9.2941176891326904e-01</leafValues></_>
    <_>
      <internalNodes>
        0 -1 138307 3.8246675103437155e-05</internalNodes>
      <leafValues>
        -5.0815355777740479e-01 9.2793047428131104e-01</leafValues></_>
    <_>
      <internalNodes>
        0 -1 4323 1.4208992943167686e-03</internalNodes>
      <leafValues>
        -3.9991369843482971e-01 9.6566069126129150e-01</leafValues></_>
    <_>
      <internalNodes>
        0 -1 157656 -2.5791096049943008e-05</internalNodes>
      <leafValues>
        9.8280280828475952e-01 -3.7220358848571777e-01</leafValues></_>
    <_>
      <internalNodes>
        0 -1 147014 2.1830662153661251e-03</internalNodes>
      <leafValues>
        -2.1756696701049805e-01 1.</leafValues></_>
    <_>
      <internalNodes>
        0 -1 30243 -2.2744094021618366e-03</internalNodes>
      <leafValues>
        1. -1.4945800602436066e-01</leafValues></_>
    <_>
      <internalNodes>
        0 -1 144735 -1.3954211026430130e-03</internalNodes>
      <leafValues>
        1. -1.1560674756765366e-01</leafValues></_>
    <_>
      <internalNodes>
        0 -1 48667 3.4195778425782919e-04</internalNodes>
      <leafValues>
        -7.8900247812271118e-02 9.5528519153594971e-01</leafValues></_>
    <_>
      <internalNodes>
        0 -1 89106 -1.9872494041919708e-02</internalNodes>
      <leafValues>
        -8.7568187713623047e-01 2.2150900959968567e-01</leafValues></_>
    <_>
      <internalNodes>
        0 -1 67513 6.2210048781707883e-04</internalNodes>
      <leafValues>
        -1.2978072464466095e-01 1.</leafValues></_>
    <_>
      <internalNodes>
        0 -1 120181 1.0861340910196304e-02</internalNodes>
      <leafValues>
        9.6677526831626892e-02 -1.</leafValues></_>
    <_>
      <internalNodes>
        0 -1 2782 8.4012895822525024e-03</internalNodes>
      <leafValues>
        -7.7661141753196716e-02 1.</leafValues></_>
    <_>
      <internalNodes>
        0 -1 87793 -4.6658256906084716e-05</internalNodes>
      <leafValues>
        -9.0924316644668579e-01 5.7316791266202927e-02</leafValues></_>
    <_>
      <internalNodes>
        0 -1 118631 -2.2408907170756720e-05</internalNodes>
      <leafValues>
        1. -3.5049829632043839e-02</leafValues></_>
    <_>
      <internalNodes>
        0 -1 89679 -1.4751021808478981e-05</internalNodes>
      <leafValues>
        -1. 1.7922591418027878e-02</leafValues></_>
    <_>
      <internalNodes>
        0 -1 8059 -1.0933676967397332e-03</internalNodes>
      <leafValues>
        1. -2.1175818517804146e-02</leafValues></_>
    <_>
      <internalNodes>
        0 -1 137822 -1.6445408618892543e-05</internalNodes>
      <leafValues>
        1. -7.1812327951192856e-03</leafValues></_>
    <_>
      <internalNodes>
        0 -1 219 1.8751241441350430e-05</internalNodes>
      <leafValues>
        1.1806705035269260e-02 -1.</leafValues></_>
    <_>
      <internalNodes>
        0 -1 206 3.0176711152307689e-04</internalNodes>
      <leafValues>
        -4.6018282882869244e-03 1.</leafValues></_>
    <_>
      <internalNodes>
        0 -1 209 -2.2787820853409357e-05</internalNodes>
      <leafValues>
        -1. 4.6023442409932613e-03</leafValues></_>
    <_>
      <internalNodes>
        0 -1 119 -5.5607917602173984e-05</internalNodes>
      <leafValues>
        1. -1.7962384736165404e-03</leafValues></_>
    <_>
      <internalNodes>
        0 -1 134 9.9722172308247536e-05</internalNodes>
      <leafValues>
        4.0779486298561096e-03 -1.</leafValues></_>
    <_>
      <internalNodes>
        0 -1 126 6.0302401834633201e-05</internalNodes>
      <leafValues>
        -2.2816737182438374e-03 1.</leafValues></_>
    <_>
      <internalNodes>
        0 -1 607 -3.7946902215480804e-02</internalNodes>
      <leafValues>
        -1. 2.2816923446953297e-03</leafValues></_>
    <_>
      <internalNodes>
        0 -1 607 -1.9851677119731903e-02</internalNodes>
      <leafValues>
        1. -2.2816923446953297e-03</leafValues></_>
    <_>
      <internalNodes>
        0 -1 82 7.9947691119741648e-05</internalNodes>
      <leafValues>
        -3.9596015355414238e-09 -1.</leafValues></_>
    <_>
      <internalNodes>
        0 -1 12 2.3036885977489874e-05</internalNodes>
      <leafValues>
        -1.7930530011653900e-03 1.</leafValues></_>
    <_>
      <internalNodes>
        0 -1 1 -1.7849650248535909e-05</internalNodes>
      <leafValues>
        -1. 1.7930511385202408e-03</leafValues></_>
    <_>
      <internalNodes>
        0 -1 1 3.5450670111458749e-05</internalNodes>
      <leafValues>
        2.2380738519132137e-03 -1.</leafValues></_>
    <_>
      <internalNodes>
        0 -1 115 6.6284654894843698e-04</internalNodes>
      <leafValues>
        -2.2380682639777660e-03 1.</leafValues></_></weakClassifiers></stage8>
</opencv_storage>
