<?xml version="1.0"?>
<opencv_storage>
<stage6>
  <maxWeakCount>100</maxWeakCount>
  <stageThreshold>-2.1601216793060303e+00</stageThreshold>
  <weakClassifiers>
    <_>
      <internalNodes>
        0 -1 14754 -3.8990972825558856e-05</internalNodes>
      <leafValues>
        8.1443297863006592e-01 -5.8620691299438477e-01</leafValues></_>
    <_>
      <internalNodes>
        0 -1 24961 2.4591090550529771e-05</internalNodes>
      <leafValues>
        -4.2602744698524475e-01 9.0276271104812622e-01</leafValues></_>
    <_>
      <internalNodes>
        0 -1 93914 3.5227998159825802e-04</internalNodes>
      <leafValues>
        -3.9943331480026245e-01 9.0295451879501343e-01</leafValues></_>
    <_>
      <internalNodes>
        0 -1 137086 -4.2464664147701114e-05</internalNodes>
      <leafValues>
        8.5459607839584351e-01 -4.3910858035087585e-01</leafValues></_>
    <_>
      <internalNodes>
        0 -1 19274 -4.0936173172667623e-04</internalNodes>
      <leafValues>
        8.4578156471252441e-01 -3.3983388543128967e-01</leafValues></_>
    <_>
      <internalNodes>
        0 -1 143958 -2.2308174811769277e-04</internalNodes>
      <leafValues>
        9.3325382471084595e-01 -1.8946252763271332e-01</leafValues></_>
    <_>
      <internalNodes>
        0 -1 3200 -1.6757667763158679e-03</internalNodes>
      <leafValues>
        -8.0199986696243286e-01 3.5867112874984741e-01</leafValues></_>
    <_>
      <internalNodes>
        0 -1 28547 -2.9252492822706699e-03</internalNodes>
      <leafValues>
        8.5184711217880249e-01 -2.9528349637985229e-01</leafValues></_>
    <_>
      <internalNodes>
        0 -1 155573 -2.1939456928521395e-04</internalNodes>
      <leafValues>
        -9.7406369447708130e-01 2.5961548089981079e-01</leafValues></_>
    <_>
      <internalNodes>
        0 -1 135553 -4.3535213917493820e-03</internalNodes>
      <leafValues>
        1. -1.9854405522346497e-01</leafValues></_>
    <_>
      <internalNodes>
        0 -1 157285 -3.4716515801846981e-04</internalNodes>
      <leafValues>
        -1. 1.6679598391056061e-01</leafValues></_>
    <_>
      <internalNodes>
        0 -1 118709 2.9663243331015110e-03</internalNodes>
      <leafValues>
        -1.4335791766643524e-01 1.</leafValues></_>
    <_>
      <internalNodes>
        0 -1 103606 -2.0963812858099118e-05</internalNodes>
      <leafValues>
        -7.3158574104309082e-01 1.3512653112411499e-01</leafValues></_>
    <_>
      <internalNodes>
        0 -1 138673 2.8512764401966706e-05</internalNodes>
      <leafValues>
        -1.0576374828815460e-01 9.1446292400360107e-01</leafValues></_>
    <_>
      <internalNodes>
        0 -1 98 -9.3543184921145439e-03</internalNodes>
      <leafValues>
        -1. 8.0591537058353424e-02</leafValues></_>
    <_>
      <internalNodes>
        0 -1 89449 -3.3049605553969741e-04</internalNodes>
      <leafValues>
        1. -7.3908783495426178e-02</leafValues></_>
    <_>
      <internalNodes>
        0 -1 146190 3.6003510467708111e-04</internalNodes>
      <leafValues>
        4.9537979066371918e-02 -1.</leafValues></_>
    <_>
      <internalNodes>
        0 -1 80507 4.6116409066598862e-05</internalNodes>
      <leafValues>
        -2.8720295056700706e-02 9.4040167331695557e-01</leafValues></_>
    <_>
      <internalNodes>
        0 -1 23013 -8.8357061031274498e-05</internalNodes>
      <leafValues>
        -8.4303975105285645e-01 3.6752637475728989e-02</leafValues></_>
    <_>
      <internalNodes>
        0 -1 121107 -1.0102229134645313e-04</internalNodes>
      <leafValues>
        9.5349580049514771e-01 -2.9178092256188393e-02</leafValues></_>
    <_>
      <internalNodes>
        0 -1 107642 -1.1571872979402542e-02</internalNodes>
      <leafValues>
        -9.0144592523574829e-01 2.2295434027910233e-02</leafValues></_>
    <_>
      <internalNodes>
        0 -1 79058 -2.3856130428612232e-04</internalNodes>
      <leafValues>
        1. -1.5003967098891735e-02</leafValues></_>
    <_>
      <internalNodes>
        0 -1 2200 -1.1745565570890903e-03</internalNodes>
      <leafValues>
        -1. 3.9636287838220596e-03</leafValues></_>
    <_>
      <internalNodes>
        0 -1 5891 -1.4545513840857893e-04</internalNodes>
      <leafValues>
        1. -3.6390135064721107e-03</leafValues></_>
    <_>
      <internalNodes>
        0 -1 73 -4.1927625716198236e-05</internalNodes>
      <leafValues>
        -1. 1.3776093255728483e-03</leafValues></_>
    <_>
      <internalNodes>
        0 -1 54 -3.6080728023080155e-05</internalNodes>
      <leafValues>
        1. -1.3776245759800076e-03</leafValues></_>
    <_>
      <internalNodes>
        0 -1 44 -2.2796506527811289e-05</internalNodes>
      <leafValues>
        -1. 1.3776245759800076e-03</leafValues></_>
    <_>
      <internalNodes>
        0 -1 44 -1.8040364011540078e-05</internalNodes>
      <leafValues>
        1. -1.3776245759800076e-03</leafValues></_>
    <_>
      <internalNodes>
        0 -1 44 -2.2796506527811289e-05</internalNodes>
      <leafValues>
        -1. 1.3776245759800076e-03</leafValues></_>
    <_>
      <internalNodes>
        0 -1 44 -1.8040364011540078e-05</internalNodes>
      <leafValues>
        1. -1.3776245759800076e-03</leafValues></_>
    <_>
      <internalNodes>
        0 -1 44 -2.2796506527811289e-05</internalNodes>
      <leafValues>
        -1. 1.3776245759800076e-03</leafValues></_>
    <_>
      <internalNodes>
        0 -1 44 -1.8040364011540078e-05</internalNodes>
      <leafValues>
        1. -1.3776245759800076e-03</leafValues></_>
    <_>
      <internalNodes>
        0 -1 44 -2.2796506527811289e-05</internalNodes>
      <leafValues>
        -1. 1.3776245759800076e-03</leafValues></_>
    <_>
      <internalNodes>
        0 -1 44 -1.8040364011540078e-05</internalNodes>
      <leafValues>
        1. -1.3776245759800076e-03</leafValues></_>
    <_>
      <internalNodes>
        0 -1 44 -2.2796506527811289e-05</internalNodes>
      <leafValues>
        -1. 1.3776245759800076e-03</leafValues></_>
    <_>
      <internalNodes>
        0 -1 44 -1.8040364011540078e-05</internalNodes>
      <leafValues>
        1. -1.3776245759800076e-03</leafValues></_>
    <_>
      <internalNodes>
        0 -1 44 -2.2796506527811289e-05</internalNodes>
      <leafValues>
        -1. 1.3776245759800076e-03</leafValues></_>
    <_>
      <internalNodes>
        0 -1 44 -1.8040364011540078e-05</internalNodes>
      <leafValues>
        1. -1.3776245759800076e-03</leafValues></_>
    <_>
      <internalNodes>
        0 -1 44 -2.2796506527811289e-05</internalNodes>
      <leafValues>
        -1. 1.3776245759800076e-03</leafValues></_>
    <_>
      <internalNodes>
        0 -1 44 -1.8040364011540078e-05</internalNodes>
      <leafValues>
        1. -1.3776245759800076e-03</leafValues></_>
    <_>
      <internalNodes>
        0 -1 44 -2.2796506527811289e-05</internalNodes>
      <leafValues>
        -1. 1.3776245759800076e-03</leafValues></_>
    <_>
      <internalNodes>
        0 -1 44 -1.8040364011540078e-05</internalNodes>
      <leafValues>
        1. -1.3776245759800076e-03</leafValues></_>
    <_>
      <internalNodes>
        0 -1 44 -2.2796506527811289e-05</internalNodes>
      <leafValues>
        -1. 1.3776245759800076e-03</leafValues></_>
    <_>
      <internalNodes>
        0 -1 44 -1.8040364011540078e-05</internalNodes>
      <leafValues>
        1. -1.3776245759800076e-03</leafValues></_>
    <_>
      <internalNodes>
        0 -1 44 -2.2796506527811289e-05</internalNodes>
      <leafValues>
        -1. 1.3776245759800076e-03</leafValues></_>
    <_>
      <internalNodes>
        0 -1 44 -1.8040364011540078e-05</internalNodes>
      <leafValues>
        1. -1.3776245759800076e-03</leafValues></_>
    <_>
      <internalNodes>
        0 -1 44 -2.2796506527811289e-05</internalNodes>
      <leafValues>
        -1. 1.3776245759800076e-03</leafValues></_>
    <_>
      <internalNodes>
        0 -1 44 -1.8040364011540078e-05</internalNodes>
      <leafValues>
        1. -1.3776245759800076e-03</leafValues></_>
    <_>
      <internalNodes>
        0 -1 44 -2.2796506527811289e-05</internalNodes>
      <leafValues>
        -1. 1.3776245759800076e-03</leafValues></_>
    <_>
      <internalNodes>
        0 -1 44 -1.8040364011540078e-05</internalNodes>
      <leafValues>
        1. -1.3776245759800076e-03</leafValues></_>
    <_>
      <internalNodes>
        0 -1 44 -2.2796506527811289e-05</internalNodes>
      <leafValues>
        -1. 1.3776245759800076e-03</leafValues></_>
    <_>
      <internalNodes>
        0 -1 44 -1.8040364011540078e-05</internalNodes>
      <leafValues>
        1. -1.3776245759800076e-03</leafValues></_>
    <_>
      <internalNodes>
        0 -1 44 -2.2796506527811289e-05</internalNodes>
      <leafValues>
        -1. 1.3776245759800076e-03</leafValues></_>
    <_>
      <internalNodes>
        0 -1 44 -1.8040364011540078e-05</internalNodes>
      <leafValues>
        1. -1.3776245759800076e-03</leafValues></_>
    <_>
      <internalNodes>
        0 -1 44 -2.2796506527811289e-05</internalNodes>
      <leafValues>
        -1. 1.3776245759800076e-03</leafValues></_>
    <_>
      <internalNodes>
        0 -1 44 -1.8040364011540078e-05</internalNodes>
      <leafValues>
        1. -1.3776245759800076e-03</leafValues></_>
    <_>
      <internalNodes>
        0 -1 44 -2.2796506527811289e-05</internalNodes>
      <leafValues>
        -1. 1.3776245759800076e-03</leafValues></_>
    <_>
      <internalNodes>
        0 -1 44 -1.8040364011540078e-05</internalNodes>
      <leafValues>
        1. -1.3776245759800076e-03</leafValues></_>
    <_>
      <internalNodes>
        0 -1 44 -2.2796506527811289e-05</internalNodes>
      <leafValues>
        -1. 1.3776245759800076e-03</leafValues></_>
    <_>
      <internalNodes>
        0 -1 44 -1.8040364011540078e-05</internalNodes>
      <leafValues>
        1. -1.3776245759800076e-03</leafValues></_>
    <_>
      <internalNodes>
        0 -1 44 -2.2796506527811289e-05</internalNodes>
      <leafValues>
        -1. 1.3776245759800076e-03</leafValues></_>
    <_>
      <internalNodes>
        0 -1 44 -1.8040364011540078e-05</internalNodes>
      <leafValues>
        1. -1.3776245759800076e-03</leafValues></_>
    <_>
      <internalNodes>
        0 -1 44 -2.2796506527811289e-05</internalNodes>
      <leafValues>
        -1. 1.3776245759800076e-03</leafValues></_>
    <_>
      <internalNodes>
        0 -1 44 -1.8040364011540078e-05</internalNodes>
      <leafValues>
        1. -1.3776245759800076e-03</leafValues></_>
    <_>
      <internalNodes>
        0 -1 44 -2.2796506527811289e-05</internalNodes>
      <leafValues>
        -1. 1.3776245759800076e-03</leafValues></_>
    <_>
      <internalNodes>
        0 -1 44 -1.8040364011540078e-05</internalNodes>
      <leafValues>
        1. -1.3776245759800076e-03</leafValues></_>
    <_>
      <internalNodes>
        0 -1 44 -2.2796506527811289e-05</internalNodes>
      <leafValues>
        -1. 1.3776245759800076e-03</leafValues></_>
    <_>
      <internalNodes>
        0 -1 44 -1.8040364011540078e-05</internalNodes>
      <leafValues>
        1. -1.3776245759800076e-03</leafValues></_>
    <_>
      <internalNodes>
        0 -1 44 -2.2796506527811289e-05</internalNodes>
      <leafValues>
        -1. 1.3776245759800076e-03</leafValues></_>
    <_>
      <internalNodes>
        0 -1 44 -1.8040364011540078e-05</internalNodes>
      <leafValues>
        1. -1.3776245759800076e-03</leafValues></_>
    <_>
      <internalNodes>
        0 -1 44 -2.2796506527811289e-05</internalNodes>
      <leafValues>
        -1. 1.3776245759800076e-03</leafValues></_>
    <_>
      <internalNodes>
        0 -1 44 -1.8040364011540078e-05</internalNodes>
      <leafValues>
        1. -1.3776245759800076e-03</leafValues></_>
    <_>
      <internalNodes>
        0 -1 44 -2.2796506527811289e-05</internalNodes>
      <leafValues>
        -1. 1.3776245759800076e-03</leafValues></_>
    <_>
      <internalNodes>
        0 -1 44 -1.8040364011540078e-05</internalNodes>
      <leafValues>
        1. -1.3776245759800076e-03</leafValues></_>
    <_>
      <internalNodes>
        0 -1 44 -2.2796506527811289e-05</internalNodes>
      <leafValues>
        -1. 1.3776245759800076e-03</leafValues></_>
    <_>
      <internalNodes>
        0 -1 44 -1.8040364011540078e-05</internalNodes>
      <leafValues>
        1. -1.3776245759800076e-03</leafValues></_>
    <_>
      <internalNodes>
        0 -1 44 -2.2796506527811289e-05</internalNodes>
      <leafValues>
        -1. 1.3776245759800076e-03</leafValues></_>
    <_>
      <internalNodes>
        0 -1 44 -1.8040364011540078e-05</internalNodes>
      <leafValues>
        1. -1.3776245759800076e-03</leafValues></_>
    <_>
      <internalNodes>
        0 -1 44 -2.2796506527811289e-05</internalNodes>
      <leafValues>
        -1. 1.3776245759800076e-03</leafValues></_>
    <_>
      <internalNodes>
        0 -1 44 -1.8040364011540078e-05</internalNodes>
      <leafValues>
        1. -1.3776245759800076e-03</leafValues></_>
    <_>
      <internalNodes>
        0 -1 44 -2.2796506527811289e-05</internalNodes>
      <leafValues>
        -1. 1.3776245759800076e-03</leafValues></_>
    <_>
      <internalNodes>
        0 -1 44 -1.8040364011540078e-05</internalNodes>
      <leafValues>
        1. -1.3776245759800076e-03</leafValues></_>
    <_>
      <internalNodes>
        0 -1 44 -2.2796506527811289e-05</internalNodes>
      <leafValues>
        -1. 1.3776245759800076e-03</leafValues></_>
    <_>
      <internalNodes>
        0 -1 44 -1.8040364011540078e-05</internalNodes>
      <leafValues>
        1. -1.3776245759800076e-03</leafValues></_>
    <_>
      <internalNodes>
        0 -1 44 -2.2796506527811289e-05</internalNodes>
      <leafValues>
        -1. 1.3776245759800076e-03</leafValues></_>
    <_>
      <internalNodes>
        0 -1 44 -1.8040364011540078e-05</internalNodes>
      <leafValues>
        1. -1.3776245759800076e-03</leafValues></_>
    <_>
      <internalNodes>
        0 -1 44 -2.2796506527811289e-05</internalNodes>
      <leafValues>
        -1. 1.3776245759800076e-03</leafValues></_>
    <_>
      <internalNodes>
        0 -1 44 -1.8040364011540078e-05</internalNodes>
      <leafValues>
        1. -1.3776245759800076e-03</leafValues></_>
    <_>
      <internalNodes>
        0 -1 44 -2.2796506527811289e-05</internalNodes>
      <leafValues>
        -1. 1.3776245759800076e-03</leafValues></_>
    <_>
      <internalNodes>
        0 -1 44 -1.8040364011540078e-05</internalNodes>
      <leafValues>
        1. -1.3776245759800076e-03</leafValues></_>
    <_>
      <internalNodes>
        0 -1 44 -2.2796506527811289e-05</internalNodes>
      <leafValues>
        -1. 1.3776245759800076e-03</leafValues></_>
    <_>
      <internalNodes>
        0 -1 44 -1.8040364011540078e-05</internalNodes>
      <leafValues>
        1. -1.3776245759800076e-03</leafValues></_>
    <_>
      <internalNodes>
        0 -1 44 -2.2796506527811289e-05</internalNodes>
      <leafValues>
        -1. 1.3776245759800076e-03</leafValues></_>
    <_>
      <internalNodes>
        0 -1 44 -1.8040364011540078e-05</internalNodes>
      <leafValues>
        1. -1.3776245759800076e-03</leafValues></_>
    <_>
      <internalNodes>
        0 -1 44 -2.2796506527811289e-05</internalNodes>
      <leafValues>
        -1. 1.3776245759800076e-03</leafValues></_>
    <_>
      <internalNodes>
        0 -1 44 -1.8040364011540078e-05</internalNodes>
      <leafValues>
        1. -1.3776245759800076e-03</leafValues></_>
    <_>
      <internalNodes>
        0 -1 44 -2.2796506527811289e-05</internalNodes>
      <leafValues>
        -1. 1.3776245759800076e-03</leafValues></_>
    <_>
      <internalNodes>
        0 -1 44 -1.8040364011540078e-05</internalNodes>
      <leafValues>
        1. -1.3776245759800076e-03</leafValues></_>
    <_>
      <internalNodes>
        0 -1 44 -2.2796506527811289e-05</internalNodes>
      <leafValues>
        -1. 1.3776245759800076e-03</leafValues></_>
    <_>
      <internalNodes>
        0 -1 44 -1.8040364011540078e-05</internalNodes>
      <leafValues>
        1. -1.3776245759800076e-03</leafValues></_></weakClassifiers></stage6>
</opencv_storage>
