<?xml version="1.0"?>
<opencv_storage>
<stage9>
  <maxWeakCount>25</maxWeakCount>
  <stageThreshold>-2.2386684417724609e+00</stageThreshold>
  <weakClassifiers>
    <_>
      <internalNodes>
        0 -1 99364 -1.3954093446955085e-04</internalNodes>
      <leafValues>
        8.7234044075012207e-01 -5.9663867950439453e-01</leafValues></_>
    <_>
      <internalNodes>
        0 -1 32419 3.4517222084105015e-03</internalNodes>
      <leafValues>
        -4.4643801450729370e-01 9.6092832088470459e-01</leafValues></_>
    <_>
      <internalNodes>
        0 -1 88975 2.6957390218740329e-05</internalNodes>
      <leafValues>
        -4.3303585052490234e-01 8.2024222612380981e-01</leafValues></_>
    <_>
      <internalNodes>
        0 -1 138818 3.8426974788308144e-04</internalNodes>
      <leafValues>
        -3.7515458464622498e-01 9.2821419239044189e-01</leafValues></_>
    <_>
      <internalNodes>
        0 -1 65147 8.3023831248283386e-03</internalNodes>
      <leafValues>
        -3.0950090289115906e-01 1.</leafValues></_>
    <_>
      <internalNodes>
        0 -1 116932 -1.8114086706191301e-03</internalNodes>
      <leafValues>
        9.3042910099029541e-01 -1.6825304925441742e-01</leafValues></_>
    <_>
      <internalNodes>
        0 -1 98662 -5.1796479965560138e-05</internalNodes>
      <leafValues>
        -7.9801243543624878e-01 3.5703611373901367e-01</leafValues></_>
    <_>
      <internalNodes>
        0 -1 137235 3.8928253343328834e-04</internalNodes>
      <leafValues>
        -2.5455665588378906e-01 9.5323228836059570e-01</leafValues></_>
    <_>
      <internalNodes>
        0 -1 113171 4.7041551442816854e-04</internalNodes>
      <leafValues>
        -1.1589141190052032e-01 8.6168658733367920e-01</leafValues></_>
    <_>
      <internalNodes>
        0 -1 79222 -1.4374206773936749e-02</internalNodes>
      <leafValues>
        -8.6856490373611450e-01 1.6785916686058044e-01</leafValues></_>
    <_>
      <internalNodes>
        0 -1 85877 3.1383955501951277e-04</internalNodes>
      <leafValues>
        -1.2380570173263550e-01 1.</leafValues></_>
    <_>
      <internalNodes>
        0 -1 152835 1.0983698070049286e-02</internalNodes>
      <leafValues>
        1.1686559021472931e-01 -1.</leafValues></_>
    <_>
      <internalNodes>
        0 -1 38169 -2.6965921279042959e-03</internalNodes>
      <leafValues>
        9.1198706626892090e-01 -9.9905498325824738e-02</leafValues></_>
    <_>
      <internalNodes>
        0 -1 78649 -2.0390708232298493e-04</internalNodes>
      <leafValues>
        -1. 5.6203253567218781e-02</leafValues></_>
    <_>
      <internalNodes>
        0 -1 80899 2.7192260604351759e-03</internalNodes>
      <leafValues>
        -4.5987945050001144e-02 1.</leafValues></_>
    <_>
      <internalNodes>
        0 -1 71921 1.7033374751918018e-04</internalNodes>
      <leafValues>
        4.7460991889238358e-02 -1.</leafValues></_>
    <_>
      <internalNodes>
        0 -1 104073 3.8895697798579931e-05</internalNodes>
      <leafValues>
        -2.1580882370471954e-02 1.</leafValues></_>
    <_>
      <internalNodes>
        0 -1 79546 -6.0191133525222540e-04</internalNodes>
      <leafValues>
        -1. 1.7568614333868027e-02</leafValues></_>
    <_>
      <internalNodes>
        0 -1 34451 -2.3279559172806330e-05</internalNodes>
      <leafValues>
        1. -8.4771541878581047e-03</leafValues></_>
    <_>
      <internalNodes>
        0 -1 33 4.3812560761580244e-05</internalNodes>
      <leafValues>
        -2.0307088277604635e-07 -1.</leafValues></_>
    <_>
      <internalNodes>
        0 -1 28 4.4966807763557881e-05</internalNodes>
      <leafValues>
        -2.4356655776500702e-03 1.</leafValues></_>
    <_>
      <internalNodes>
        0 -1 23 8.3615814219228923e-05</internalNodes>
      <leafValues>
        2.4356609210371971e-03 -1.</leafValues></_>
    <_>
      <internalNodes>
        0 -1 9088 -1.1529595940373838e-04</internalNodes>
      <leafValues>
        1. -2.4356609210371971e-03</leafValues></_>
    <_>
      <internalNodes>
        0 -1 200 -5.6702381698414683e-05</internalNodes>
      <leafValues>
        -1. -4.8164916499615629e-09</leafValues></_>
    <_>
      <internalNodes>
        0 -1 254 -2.3934391720104031e-05</internalNodes>
      <leafValues>
        1. 8.7553645296235480e-16</leafValues></_></weakClassifiers></stage9>
</opencv_storage>
